{
  "n_layers": 8,
  "layers": [
    {
      "config": {
        "span": 8000,
        "atr_period": 2000,
        "hidden_features": 16,
        "hidden_layers": 1,
        "omega_0": 10.0,
        "lr": 0.005,
        "epochs": 2000,
        "alpha": 1.0,
        "beta": 0.5
      },
      "state_dict": {
        "net.0.linear.weight": [
          [
            0.7266945838928223
          ],
          [
            0.15613220632076263
          ],
          [
            -0.29830747842788696
          ],
          [
            0.5839750170707703
          ],
          [
            0.21489596366882324
          ],
          [
            0.7491136789321899
          ],
          [
            0.11924240738153458
          ],
          [
            -0.29975831508636475
          ],
          [
            0.2495708465576172
          ],
          [
            -0.28613704442977905
          ],
          [
            0.4114840030670166
          ],
          [
            0.8925133943557739
          ],
          [
            0.5572189092636108
          ],
          [
            -0.4043203890323639
          ],
          [
            0.5415790677070618
          ],
          [
            0.20609118044376373
          ]
        ],
        "net.0.linear.bias": [
          0.778874397277832,
          0.14205406606197357,
          -0.4471805691719055,
          0.2774205207824707,
          -0.3891865015029907,
          -0.17257218062877655,
          -0.375357449054718,
          0.666710615158081,
          -0.7869371771812439,
          -0.4830002784729004,
          -0.283728688955307,
          -0.558104395866394,
          0.07113487273454666,
          -0.9555020928382874,
          0.868340790271759,
          -0.8166980743408203
        ],
        "net.1.linear.weight": [
          [
            -0.06192544102668762,
            -0.014729496091604233,
            0.05994437634944916,
            -0.000738374947104603,
            -0.040892116725444794,
            -0.012638822197914124,
            -0.03309625759720802,
            -0.04414142668247223,
            -0.058314546942710876,
            -0.0038417456671595573,
            0.039551232010126114,
            0.017390048131346703,
            0.005769002251327038,
            -0.03394969925284386,
            0.0377311073243618,
            -0.03745473176240921
          ],
          [
            -0.023243717849254608,
            -0.015436417423188686,
            -0.052421122789382935,
            0.019735092297196388,
            -0.01714886724948883,
            -0.0036933475639671087,
            -0.042338088154792786,
            -0.0584443174302578,
            -0.013547499664127827,
            -0.057545747607946396,
            0.07156078517436981,
            0.019205637276172638,
            -0.0479525551199913,
            -0.008303656242787838,
            0.01997552253305912,
            0.055544912815093994
          ],
          [
            0.026407361030578613,
            -0.004111098125576973,
            -0.04581959545612335,
            0.0006065356428734958,
            -0.0032046400010585785,
            -0.010884502902626991,
            -0.051063962280750275,
            0.07295829057693481,
            -0.021413767710328102,
            -0.020708898082375526,
            -0.06008577346801758,
            -0.018639931455254555,
            -0.013950320892035961,
            0.026988059282302856,
            -0.006483168341219425,
            -0.006154400296509266
          ],
          [
            -0.034056514501571655,
            0.03266524896025658,
            0.04323607310652733,
            0.020934127271175385,
            -0.008642049506306648,
            -0.045448631048202515,
            -0.026140185073018074,
            -0.08588627725839615,
            -0.012146146968007088,
            0.03371526300907135,
            0.019334329292178154,
            -0.021614253520965576,
            0.021306047216057777,
            -0.02156836912035942,
            0.011369231157004833,
            0.016056682914495468
          ],
          [
            0.004190053790807724,
            0.0070891715586185455,
            -0.02401219680905342,
            -0.04428815096616745,
            0.011051117442548275,
            -0.03763861209154129,
            -0.01814171113073826,
            0.003213263116776943,
            0.030897973105311394,
            0.050936099141836166,
            0.005525034386664629,
            -0.016966618597507477,
            -0.030380675569176674,
            0.02584359608590603,
            0.014171641319990158,
            0.024149999022483826
          ],
          [
            -0.020917246118187904,
            0.06000629812479019,
            -0.03016023337841034,
            0.019699785858392715,
            0.006698884069919586,
            -0.03469964861869812,
            -0.05450206995010376,
            -0.054878998547792435,
            -0.01889043301343918,
            -0.003362116403877735,
            -0.011765203438699245,
            -0.023365844041109085,
            0.028910255059599876,
            0.005332649685442448,
            0.03617948293685913,
            -0.05862272530794144
          ],
          [
            -0.003941193222999573,
            -0.005420838948339224,
            0.013041896745562553,
            -0.03617249056696892,
            -0.026184309273958206,
            -0.046499043703079224,
            -0.048761285841464996,
            0.06086757406592369,
            0.043227557092905045,
            0.03991331905126572,
            -0.01722882315516472,
            -0.01866322197020054,
            -0.04010364040732384,
            0.03866589441895485,
            0.011639547534286976,
            0.023443911224603653
          ],
          [
            -0.057793989777565,
            0.009251801297068596,
            -0.07363957911729813,
            -0.019672086462378502,
            -0.046475160866975784,
            0.008023432455956936,
            -0.036390919238328934,
            -0.0019181908573955297,
            0.024168698117136955,
            0.018246810883283615,
            -0.02136244624853134,
            0.043855372816324234,
            0.038645800203084946,
            -0.01210111565887928,
            -0.08934300392866135,
            0.06875031441450119
          ],
          [
            0.06075352430343628,
            0.030350835993885994,
            0.049619872123003006,
            -0.07659858465194702,
            -0.03923068568110466,
            -0.04662616550922394,
            0.05943929776549339,
            0.005123049020767212,
            -0.06930053234100342,
            0.10337398946285248,
            -0.027665138244628906,
            -0.02582222782075405,
            -0.03213239461183548,
            0.06186265870928764,
            -0.0019087360706180334,
            -0.03750957176089287
          ],
          [
            0.013624301180243492,
            -0.06472158432006836,
            -0.05989225581288338,
            -0.039256270974874496,
            0.03387449309229851,
            0.06234322115778923,
            0.03345207870006561,
            0.0519307516515255,
            0.06533298641443253,
            -0.02020028606057167,
            0.00012263502867426723,
            0.015994230285286903,
            -0.018737349659204483,
            -0.06443612277507782,
            0.011656509712338448,
            0.04765474796295166
          ],
          [
            0.03430623561143875,
            0.019032053649425507,
            -0.040845271199941635,
            0.023158535361289978,
            -0.0033014784567058086,
            -0.0013351310044527054,
            0.06141353026032448,
            -0.007681326940655708,
            0.07146229594945908,
            0.03357655927538872,
            0.04885530471801758,
            -0.017921866849064827,
            0.06975490599870682,
            -0.025116674602031708,
            0.04183190315961838,
            -0.04759605601429939
          ],
          [
            0.02145865000784397,
            0.14146053791046143,
            -0.016468970105051994,
            -0.025838643312454224,
            -0.08731230348348618,
            -0.04027443379163742,
            -0.03444372117519379,
            -0.06530934572219849,
            0.01726660132408142,
            0.0012960494495928288,
            -0.05052517354488373,
            -0.02617715671658516,
            -0.01700807921588421,
            -0.005838369019329548,
            0.015594770200550556,
            -0.08990807831287384
          ],
          [
            0.004638271871954203,
            -0.031283918768167496,
            0.0034964701626449823,
            -0.056777868419885635,
            0.07600627094507217,
            -0.04235989600419998,
            0.07644966244697571,
            0.0469750352203846,
            -0.040792349725961685,
            0.07478099316358566,
            -0.04127129539847374,
            0.0032067149877548218,
            0.0427701361477375,
            -0.012395938858389854,
            -0.010483172722160816,
            0.004766805097460747
          ],
          [
            0.02472763881087303,
            0.02381245046854019,
            0.030634023249149323,
            -0.010775896720588207,
            0.013450019992887974,
            0.03278078883886337,
            0.06478461623191833,
            0.024486970156431198,
            -0.07079357653856277,
            0.02551635168492794,
            -0.056067630648612976,
            0.0016147257992997766,
            -0.03850061073899269,
            0.006132536567747593,
            -0.025224855169653893,
            -0.0004167395527474582
          ],
          [
            0.06282186508178711,
            0.03534824773669243,
            0.06591206789016724,
            0.042092081159353256,
            0.0654904842376709,
            -0.028200332075357437,
            0.01903478242456913,
            0.03392864763736725,
            -0.04424703121185303,
            0.05429881438612938,
            -0.017189303413033485,
            -0.053136881440877914,
            0.06653566658496857,
            0.020388180390000343,
            0.050281502306461334,
            0.03969300538301468
          ],
          [
            0.035614099353551865,
            0.061042338609695435,
            0.006742260418832302,
            -0.03932546079158783,
            -0.01651552878320217,
            -0.012393669225275517,
            -0.007524116896092892,
            -0.024133363738656044,
            -0.0364212803542614,
            -0.054294243454933167,
            -0.006774372421205044,
            -0.0326310358941555,
            -0.009321094490587711,
            0.01732528768479824,
            0.04884237423539162,
            -0.028954464942216873
          ]
        ],
        "net.1.linear.bias": [
          -0.2021423876285553,
          0.16777530312538147,
          -0.1429445743560791,
          0.10196474939584732,
          -0.14247217774391174,
          0.055489517748355865,
          0.18895694613456726,
          0.09162048250436783,
          -0.2379932403564453,
          0.06675831228494644,
          0.2975570261478424,
          0.15827703475952148,
          0.15353865921497345,
          0.2569000720977783,
          0.0016117631457746029,
          0.06728708744049072
        ],
        "net.2.weight": [
          [
            -0.1552574783563614,
            -0.02200237102806568,
            -0.17726723849773407,
            0.08449319750070572,
            -0.20686154067516327,
            0.18449711799621582,
            0.16026023030281067,
            0.017963552847504616,
            -0.0010984741384163499,
            0.0002866754657588899,
            -0.022293636575341225,
            0.055991657078266144,
            -0.029072614386677742,
            -0.042143262922763824,
            -0.022335825487971306,
            0.18278436362743378
          ]
        ],
        "net.2.bias": [
          -0.04132582247257233
        ]
      },
      "phi_atr_min": 0.0020725,
      "phi_atr_max": 8.937166711462075
    },
    {
      "config": {
        "span": 2000,
        "atr_period": 500,
        "hidden_features": 16,
        "hidden_layers": 1,
        "omega_0": 10.0,
        "lr": 0.005,
        "epochs": 2000,
        "alpha": 1.0,
        "beta": 0.5
      },
      "state_dict": {
        "net.0.linear.weight": [
          [
            0.7854528427124023
          ],
          [
            0.16269004344940186
          ],
          [
            -0.3084489107131958
          ],
          [
            0.5904647707939148
          ],
          [
            0.18026389181613922
          ],
          [
            0.8158162832260132
          ],
          [
            0.12004714459180832
          ],
          [
            -0.27239853143692017
          ],
          [
            0.27221938967704773
          ],
          [
            -0.2391316145658493
          ],
          [
            0.3973124921321869
          ],
          [
            0.8593238592147827
          ],
          [
            0.5731820464134216
          ],
          [
            -0.4375350773334503
          ],
          [
            0.5349118113517761
          ],
          [
            0.21408884227275848
          ]
        ],
        "net.0.linear.bias": [
          0.7956709265708923,
          0.1466444581747055,
          -0.4627397656440735,
          0.26655736565589905,
          -0.4402274191379547,
          -0.11647436767816544,
          -0.4026513993740082,
          0.6835604906082153,
          -0.7749589085578918,
          -0.44018831849098206,
          -0.2967804968357086,
          -0.6090127229690552,
          0.09753987193107605,
          -0.9776094555854797,
          0.865202784538269,
          -0.8321614265441895
        ],
        "net.1.linear.weight": [
          [
            -0.06805456429719925,
            -0.0133663984015584,
            0.03712448105216026,
            0.011279097758233547,
            -0.02926289103925228,
            -0.01658705063164234,
            -0.02295863814651966,
            -0.05465992912650108,
            -0.04680853709578514,
            -0.0033007089514285326,
            0.04572325944900513,
            0.005448371171951294,
            -0.034962307661771774,
            -0.04080396890640259,
            0.02081715129315853,
            -0.04478134959936142
          ],
          [
            -0.027479244396090508,
            -0.0028072958812117577,
            -0.0798230841755867,
            -0.020248083397746086,
            -0.05030153691768646,
            0.0274510458111763,
            -0.08084800839424133,
            -0.0523766428232193,
            0.004785454366356134,
            -0.08043419569730759,
            0.08941078186035156,
            -0.004259632900357246,
            -0.003706519491970539,
            -0.02128726616501808,
            0.030701804906129837,
            0.05612732842564583
          ],
          [
            0.028196195140480995,
            0.0050325593911111355,
            -0.05483946204185486,
            -0.005905936937779188,
            0.00685998285189271,
            -0.005047986283898354,
            -0.06404009461402893,
            0.06035453826189041,
            -0.03377941995859146,
            -0.014678467065095901,
            -0.05406975746154785,
            -0.015925100073218346,
            0.006863035727292299,
            0.019753295928239822,
            0.0007363746990449727,
            -0.01920737698674202
          ],
          [
            -0.049494270235300064,
            0.039121899753808975,
            0.05070975050330162,
            0.023891571909189224,
            -0.0019451564876362681,
            -0.028935762122273445,
            -0.02754185162484646,
            -0.05907341465353966,
            0.0015140287578105927,
            0.05024284869432449,
            -0.007175426464527845,
            -0.07914751023054123,
            -0.006158414296805859,
            -0.012941882014274597,
            -0.006318717263638973,
            0.014529597014188766
          ],
          [
            -0.0011877987999469042,
            0.04834352806210518,
            -0.05068114772439003,
            -0.0277978777885437,
            0.018660131841897964,
            -0.013107750564813614,
            -0.02082815021276474,
            -0.04564788192510605,
            0.04030955955386162,
            0.030902497470378876,
            0.0041832090355455875,
            -0.021772297099232674,
            -0.05438387393951416,
            0.014279440976679325,
            0.012247542850673199,
            -0.024257706478238106
          ],
          [
            -0.023854581639170647,
            0.05693143978714943,
            -0.021078577265143394,
            0.0004493615706451237,
            -0.0009709175792522728,
            -0.027477586641907692,
            -0.056824035942554474,
            -0.034620996564626694,
            -0.007712874561548233,
            0.003923739306628704,
            -0.012131288647651672,
            -0.027780288830399513,
            0.07127564400434494,
            0.010786999017000198,
            0.04693768545985222,
            -0.05413178354501724
          ],
          [
            0.02208094485104084,
            -0.017370568588376045,
            -0.025947503745555878,
            0.0025785891339182854,
            -0.028641575947403908,
            -0.07054021954536438,
            -0.056446194648742676,
            0.06301182508468628,
            0.03488761931657791,
            0.012643573805689812,
            0.014946597628295422,
            -0.042860809713602066,
            -0.03638876602053642,
            -0.00042454019421711564,
            0.04651491343975067,
            0.03676575422286987
          ],
          [
            -0.0392010360956192,
            0.04723350703716278,
            -0.06135497987270355,
            0.039121441543102264,
            0.0026119183748960495,
            -0.027270330116152763,
            0.014337128028273582,
            -0.006693585775792599,
            -0.02960779517889023,
            0.05356336012482643,
            -0.0112841185182333,
            0.01786421611905098,
            0.025428680703043938,
            -0.037161897867918015,
            -0.045821208506822586,
            0.033692944794893265
          ],
          [
            0.06698005646467209,
            -0.03382807970046997,
            0.020275654271245003,
            -0.058969397097826004,
            -0.03213315084576607,
            -0.03239193186163902,
            0.047836992889642715,
            -0.004824716132134199,
            -0.051155831664800644,
            0.0917816162109375,
            -0.02129393257200718,
            -0.022738613188266754,
            -0.03253157064318657,
            0.045254819095134735,
            0.0029975061770528555,
            -0.04889911040663719
          ],
          [
            0.017486169934272766,
            -0.0421852208673954,
            -0.07232056558132172,
            -0.04592704027891159,
            0.04621608927845955,
            0.060977786779403687,
            0.033959537744522095,
            0.008053469471633434,
            0.06599453091621399,
            -0.03155219927430153,
            -0.015587317757308483,
            0.03185300901532173,
            -0.035928986966609955,
            -0.06120742857456207,
            -0.014207756146788597,
            -0.021692931652069092
          ],
          [
            0.01046029757708311,
            -0.005284513346850872,
            -0.02825871668756008,
            0.02707824856042862,
            -0.008195964619517326,
            0.006215832661837339,
            0.05044867470860481,
            0.02548353746533394,
            0.056386906653642654,
            0.04295961186289787,
            0.056407004594802856,
            -0.009616339579224586,
            0.049519896507263184,
            -0.02976621501147747,
            0.037295617163181305,
            -0.017480546608567238
          ],
          [
            0.009381862357258797,
            0.12112947553396225,
            0.028805391862988472,
            -0.07482210546731949,
            0.04682771861553192,
            -0.0989304631948471,
            0.06889577955007553,
            0.030340248718857765,
            2.2615697162109427e-05,
            0.10734716802835464,
            -0.12847265601158142,
            -0.17465780675411224,
            -0.0687330886721611,
            0.06913068890571594,
            -0.08863721042871475,
            -0.09114987403154373
          ],
          [
            0.05835668370127678,
            -0.020177317783236504,
            -0.009655743837356567,
            -0.023868132382631302,
            0.06887930631637573,
            -0.09824898838996887,
            0.07391995191574097,
            0.006961595267057419,
            -0.03454187512397766,
            0.06696072220802307,
            -0.01318028662353754,
            0.02905748039484024,
            0.05596156418323517,
            -0.04303373768925667,
            0.034913841634988785,
            0.0010100908111780882
          ],
          [
            0.03578592464327812,
            0.04378362372517586,
            0.032155148684978485,
            0.007387984544038773,
            0.012392980046570301,
            0.02399687096476555,
            0.06750309467315674,
            0.004798178561031818,
            -0.07292041182518005,
            0.0274956114590168,
            -0.05388540029525757,
            0.03376905620098114,
            -0.03304479643702507,
            0.005879320669919252,
            0.002887500450015068,
            -0.0030684201046824455
          ],
          [
            0.03101799450814724,
            0.021673675626516342,
            0.04706471785902977,
            0.026919318363070488,
            0.05617643892765045,
            -0.0017276646103709936,
            0.004533535800874233,
            -0.022543784230947495,
            -0.026160167530179024,
            0.04940851777791977,
            -0.03027714043855667,
            -0.033952079713344574,
            0.012032382190227509,
            0.02659486047923565,
            -0.00037418431020341814,
            0.046925682574510574
          ],
          [
            0.03216056153178215,
            0.07073765993118286,
            -0.010970928706228733,
            -0.0496533066034317,
            -0.020239681005477905,
            -0.00567494984716177,
            -0.02797912433743477,
            -0.03955354914069176,
            -0.0334131121635437,
            -0.07051078975200653,
            -0.009693647734820843,
            -0.05625287815928459,
            0.006522940471768379,
            0.005918176379054785,
            0.0583031065762043,
            -0.03865525498986244
          ]
        ],
        "net.1.linear.bias": [
          -0.20316651463508606,
          0.20035289227962494,
          -0.1411464810371399,
          0.08816733211278915,
          -0.10836463421583176,
          0.05221690982580185,
          0.18513652682304382,
          0.12403655797243118,
          -0.23928123712539673,
          0.13693112134933472,
          0.2750222384929657,
          0.0850917249917984,
          0.1827472299337387,
          0.2671360373497009,
          -0.013012563809752464,
          0.079078309237957
        ],
        "net.2.weight": [
          [
            -0.015182112343609333,
            -0.007430724333971739,
            -0.03635295853018761,
            -0.000380881130695343,
            -0.04258524999022484,
            0.013116298243403435,
            0.014106403104960918,
            0.010566795244812965,
            -0.004624905996024609,
            -0.01795102097094059,
            -0.01018557883799076,
            -0.0008958660182543099,
            -0.01010937336832285,
            -0.005015289410948753,
            0.001903977943584323,
            0.016425110399723053
          ]
        ],
        "net.2.bias": [
          -0.11183161288499832
        ]
      },
      "phi_atr_min": 0.0022848000000000005,
      "phi_atr_max": 9.041881840403422
    },
    {
      "config": {
        "span": 500,
        "atr_period": 125,
        "hidden_features": 16,
        "hidden_layers": 1,
        "omega_0": 30.0,
        "lr": 0.005,
        "epochs": 1500,
        "alpha": 1.0,
        "beta": 1.0
      },
      "state_dict": {
        "net.0.linear.weight": [
          [
            0.7636635303497314
          ],
          [
            0.17651180922985077
          ],
          [
            -0.32051756978034973
          ],
          [
            0.5921538472175598
          ],
          [
            0.12946732342243195
          ],
          [
            0.8141158819198608
          ],
          [
            0.10476723313331604
          ],
          [
            -0.29564958810806274
          ],
          [
            0.22506755590438843
          ],
          [
            -0.25173458456993103
          ],
          [
            0.44882744550704956
          ],
          [
            0.9054656624794006
          ],
          [
            0.5765671730041504
          ],
          [
            -0.4385984539985657
          ],
          [
            0.5892484188079834
          ],
          [
            0.17899300158023834
          ]
        ],
        "net.0.linear.bias": [
          0.761539876461029,
          0.17582233250141144,
          -0.477092981338501,
          0.23272477090358734,
          -0.47198328375816345,
          -0.09260540455579758,
          -0.41653671860694885,
          0.6695676445960999,
          -0.8055800795555115,
          -0.4489459991455078,
          -0.24884381890296936,
          -0.5947644114494324,
          0.10009102523326874,
          -0.9885681867599487,
          0.9154320955276489,
          -0.8519932627677917
        ],
        "net.1.linear.weight": [
          [
            -0.012336554005742073,
            0.002015118720009923,
            0.002547250594943762,
            0.00480072433128953,
            0.0020436029881238937,
            0.02449553646147251,
            0.029511552304029465,
            -0.0017670989036560059,
            -0.009602685458958149,
            -0.010177185758948326,
            0.007806647568941116,
            0.01005648635327816,
            -0.014415391720831394,
            -0.014789317734539509,
            0.009464855305850506,
            -0.023987362161278725
          ],
          [
            0.003508596448227763,
            0.024740347638726234,
            -0.016186721622943878,
            0.0003347248421050608,
            0.01803082600235939,
            0.003961397334933281,
            -0.006157653406262398,
            -0.01673349179327488,
            -0.01039219181984663,
            -0.015985289588570595,
            0.004422515165060759,
            0.0011545161250978708,
            0.0020158933475613594,
            -0.007655264809727669,
            0.00669498136267066,
            0.02498132362961769
          ],
          [
            -0.0009374194778501987,
            0.028432058170437813,
            -0.010900108143687248,
            4.392232312966371e-06,
            0.012306585907936096,
            -0.00014941203698981553,
            0.01294943131506443,
            -0.000627177651040256,
            0.009918087162077427,
            -0.029851729050278664,
            -0.004191373474895954,
            -0.0016056681051850319,
            0.009630304761230946,
            0.012728648260235786,
            0.0012533731060102582,
            0.0027124998159706593
          ],
          [
            -0.05631200596690178,
            0.03294525295495987,
            0.02290477603673935,
            -0.01898691989481449,
            0.029943499714136124,
            -0.10120101273059845,
            -0.006970823742449284,
            -0.03185385838150978,
            -0.017817286774516106,
            0.04238130897283554,
            0.058376703411340714,
            0.01821429841220379,
            -0.022567879408597946,
            -0.03858320415019989,
            -0.016749294474720955,
            0.035106360912323
          ],
          [
            -0.019362205639481544,
            0.005678143352270126,
            -0.031399764120578766,
            0.0011546284658834338,
            -0.02864685282111168,
            0.00739152729511261,
            0.025745347142219543,
            0.0051835086196660995,
            0.022886790335178375,
            0.007305625826120377,
            0.002225145697593689,
            0.02579934522509575,
            0.02570696920156479,
            0.03724702447652817,
            0.01871364936232567,
            0.022037997841835022
          ],
          [
            0.0008065561996772885,
            0.007080345414578915,
            -0.0065477630123496056,
            0.00012597779277712107,
            -0.020250245928764343,
            -0.009423971176147461,
            -0.029311463236808777,
            0.0014103837311267853,
            0.0002119106356985867,
            -0.002114491304382682,
            -0.0037937499582767487,
            -0.0006957967998459935,
            -0.00022926177189219743,
            0.01071956753730774,
            -0.006769588682800531,
            -0.016352925449609756
          ],
          [
            0.02366594783961773,
            -0.010672971606254578,
            0.0006144700455479324,
            -0.00559621537104249,
            -0.009440035559237003,
            -0.0019987819250673056,
            -0.04060987010598183,
            0.0038578042294830084,
            0.01287313923239708,
            0.006258327513933182,
            -0.015531429089605808,
            -0.008695242926478386,
            0.014868498779833317,
            0.005647485144436359,
            0.034482575953006744,
            -0.0055531165562570095
          ],
          [
            -0.020436398684978485,
            -0.014391426928341389,
            0.002636488527059555,
            0.004976850934326649,
            -0.02499212510883808,
            0.011369184590876102,
            -0.04192018881440163,
            -0.008115623146295547,
            -0.02697029709815979,
            0.015110774897038937,
            0.011375424452126026,
            0.002755013993009925,
            -0.000635463569778949,
            -0.001579913659952581,
            -0.013994280248880386,
            -0.0024417589884251356
          ],
          [
            -0.011276157572865486,
            -0.012364222668111324,
            -0.0012303588446229696,
            -0.005467148497700691,
            -0.022971654310822487,
            0.005356268025934696,
            -0.01473271008580923,
            -0.008619114756584167,
            0.004787903279066086,
            0.01163378357887268,
            -0.011605588719248772,
            -0.0032993305940181017,
            -0.013306768611073494,
            -0.007252954412251711,
            0.006314592901617289,
            -0.03639589622616768
          ],
          [
            -0.01403036992996931,
            -0.005664273165166378,
            -0.013007071800529957,
            0.00013783159374725074,
            -0.004045790992677212,
            0.003947120625525713,
            -0.009422357194125652,
            -0.018163450062274933,
            0.02235902100801468,
            -0.010728880763053894,
            -0.008453600108623505,
            -0.001598947448655963,
            -0.0015067120548337698,
            0.008121958933770657,
            0.000708666630089283,
            -0.019858233630657196
          ],
          [
            0.009343290701508522,
            -0.030606813728809357,
            -0.02653777040541172,
            0.006511623505502939,
            -0.047356970608234406,
            -0.002430112799629569,
            0.03945622965693474,
            0.012215464375913143,
            0.010754212737083435,
            0.014148013666272163,
            -0.004875282756984234,
            -0.004681531339883804,
            0.004042208660393953,
            -0.0005146420444361866,
            0.016747472807765007,
            0.031783681362867355
          ],
          [
            0.04082662984728813,
            0.02364383265376091,
            0.04319547489285469,
            0.019669033586978912,
            -0.02378104068338871,
            0.004020486958324909,
            0.058584291487932205,
            -0.03527640178799629,
            -0.0028656087815761566,
            0.013653761707246304,
            -0.00554311228916049,
            0.034353822469711304,
            -0.03180679306387901,
            -0.024139633402228355,
            -0.019999584183096886,
            0.04876293987035751
          ],
          [
            0.004611754324287176,
            0.0030529198702424765,
            0.002745063742622733,
            0.0011826585978269577,
            0.02817818708717823,
            -0.019181447103619576,
            0.03413652256131172,
            -0.0048799654468894005,
            -0.005109198857098818,
            0.009125807322561741,
            -0.008561033755540848,
            0.013655492104589939,
            0.009228508919477463,
            -0.005059516988694668,
            0.0076665207743644714,
            0.010863063856959343
          ],
          [
            0.06901224702596664,
            0.01578318327665329,
            -0.0127852912992239,
            -0.013345057144761086,
            0.011168120428919792,
            0.04810130223631859,
            0.02644738368690014,
            0.009483778849244118,
            -0.025878386572003365,
            0.019130051136016846,
            -0.013212711550295353,
            -0.015578130260109901,
            0.02710767462849617,
            0.01773017831146717,
            -0.01499219611287117,
            0.02052212692797184
          ],
          [
            0.013766579329967499,
            0.02323180064558983,
            0.013492662459611893,
            0.007114556152373552,
            0.019264452159404755,
            -0.005558456759899855,
            0.01731872744858265,
            0.013276473619043827,
            0.00456030061468482,
            -0.009756873361766338,
            0.01067798025906086,
            -0.001193246222101152,
            0.008535110391676426,
            0.001075846259482205,
            0.010215852409601212,
            0.027271032333374023
          ],
          [
            0.0029710030648857355,
            -0.00303193973377347,
            0.007169516757130623,
            -0.0004181095282547176,
            -0.02533300220966339,
            -0.009832129813730717,
            -0.023059893399477005,
            -0.0071010347455739975,
            -0.017946209758520126,
            -0.00626051239669323,
            -0.021388333290815353,
            0.000892450159881264,
            -0.00904144812375307,
            0.00046201073564589024,
            -0.0036408896557986736,
            0.007470329292118549
          ]
        ],
        "net.1.linear.bias": [
          -0.15244247019290924,
          0.21758420765399933,
          -0.07565698027610779,
          0.07275296002626419,
          -0.06682983785867691,
          0.007387525402009487,
          0.20018541812896729,
          0.07285907119512558,
          -0.20535141229629517,
          0.10017415881156921,
          0.24703571200370789,
          0.1143384724855423,
          0.19513575732707977,
          0.23580138385295868,
          -0.009605186991393566,
          0.02972007356584072
        ],
        "net.2.weight": [
          [
            0.0031185210682451725,
            -0.004851534962654114,
            -0.0011861496604979038,
            -0.0007513590971939266,
            0.0041069891303777695,
            0.010039828717708588,
            0.006897937972098589,
            0.0012766054132953286,
            0.004423877224326134,
            -0.0038819885812699795,
            -0.00451240036636591,
            -0.0007364447228610516,
            -0.011356204748153687,
            -0.001383539056405425,
            -0.0011495590442791581,
            0.007130051963031292
          ]
        ],
        "net.2.bias": [
          0.007500258274376392
        ]
      },
      "phi_atr_min": 0.0025183999999999875,
      "phi_atr_max": 9.005373877023402
    },
    {
      "config": {
        "span": 125,
        "atr_period": 30,
        "hidden_features": 32,
        "hidden_layers": 2,
        "omega_0": 30.0,
        "lr": 0.002,
        "epochs": 1500,
        "alpha": 1.0,
        "beta": 1.0
      },
      "state_dict": {
        "net.0.linear.weight": [
          [
            0.30501696467399597
          ],
          [
            -0.19979427754878998
          ],
          [
            0.8224297761917114
          ],
          [
            -0.5935714244842529
          ],
          [
            -0.6029223203659058
          ],
          [
            -0.5944150686264038
          ],
          [
            0.8959714770317078
          ],
          [
            0.33612290024757385
          ],
          [
            0.9799569249153137
          ],
          [
            -0.813755989074707
          ],
          [
            -0.9922153949737549
          ],
          [
            -0.7858033180236816
          ],
          [
            -0.6674976348876953
          ],
          [
            0.39841869473457336
          ],
          [
            0.36616256833076477
          ],
          [
            0.8170139193534851
          ],
          [
            -0.521792471408844
          ],
          [
            -0.6820667386054993
          ],
          [
            0.53287672996521
          ],
          [
            -0.3994690179824829
          ],
          [
            0.6002694368362427
          ],
          [
            -0.22965455055236816
          ],
          [
            0.5726301074028015
          ],
          [
            -0.7777224779129028
          ],
          [
            -0.4885976314544678
          ],
          [
            0.29730460047721863
          ],
          [
            0.20819468796253204
          ],
          [
            -0.25730299949645996
          ],
          [
            0.5904523730278015
          ],
          [
            0.6810694932937622
          ],
          [
            -0.727135181427002
          ],
          [
            -0.5326941609382629
          ]
        ],
        "net.0.linear.bias": [
          0.7748072147369385,
          0.16266539692878723,
          -0.3398256003856659,
          0.6278437972068787,
          0.15016059577465057,
          0.8163334131240845,
          0.1054345965385437,
          -0.3172733783721924,
          0.2753323018550873,
          -0.2590365409851074,
          0.4205363690853119,
          0.8888314366340637,
          0.5789710283279419,
          -0.44323912262916565,
          0.5850988030433655,
          0.16750571131706238,
          0.5044140219688416,
          -0.6081260442733765,
          -0.9893538355827332,
          -0.3794543445110321,
          -0.7668434977531433,
          0.823715090751648,
          0.2907193601131439,
          0.42097386717796326,
          0.3292423486709595,
          -0.023424960672855377,
          0.7839492559432983,
          -0.7124105095863342,
          0.05068933963775635,
          -0.6767467856407166,
          0.30864855647087097,
          -0.33755627274513245
        ],
        "net.1.linear.weight": [
          [
            -0.000588783819694072,
            -0.0020111626945436,
            0.007180612999945879,
            0.0076151215471327305,
            0.022916536778211594,
            0.020133674144744873,
            -0.009605571627616882,
            0.007690904196351767,
            -0.014119033701717854,
            0.009026188403367996,
            -0.005963164381682873,
            -0.0007039642077870667,
            -0.010060582309961319,
            0.011006492190063,
            -0.000523101887665689,
            -0.004413113463670015,
            -0.008126464672386646,
            -0.0013870985712856054,
            -0.008472375571727753,
            -0.005359403323382139,
            -0.006498455535620451,
            -0.0022208867594599724,
            0.00702715665102005,
            0.020240822806954384,
            0.010711188428103924,
            0.011514541693031788,
            0.0036500883288681507,
            -0.0012110575335100293,
            -0.0064209518022835255,
            0.0033817358780652285,
            -0.013751809485256672,
            -0.012309374287724495
          ],
          [
            0.01114271767437458,
            -0.007131943944841623,
            0.005866269115358591,
            0.0010249704355373979,
            -0.004471682943403721,
            0.010841140523552895,
            -0.013850973919034004,
            0.01785491779446602,
            -0.00598368002101779,
            -0.016730912029743195,
            0.010076174512505531,
            -0.012184892781078815,
            -0.006721101235598326,
            -0.01195708941668272,
            -0.007945584133267403,
            -0.01088075339794159,
            -0.012955537997186184,
            -0.012207522056996822,
            -0.01411113329231739,
            0.023079775273799896,
            0.0029378687031567097,
            -0.010623728856444359,
            0.011907024309039116,
            0.012973738834261894,
            0.013355092145502567,
            0.008815613575279713,
            0.011795811355113983,
            -0.009057577699422836,
            0.01391464564949274,
            0.015296938829123974,
            -0.007007948588579893,
            0.005633908789604902
          ],
          [
            0.008226728066802025,
            -0.004209847655147314,
            0.02766447886824608,
            -3.128664684481919e-05,
            -0.004940498620271683,
            0.009338412433862686,
            0.012597567401826382,
            -0.012856362387537956,
            0.029848037287592888,
            -0.02030402608215809,
            0.010411017574369907,
            0.019998133182525635,
            0.010034370236098766,
            -0.003170074662193656,
            0.008357144892215729,
            -0.012467922642827034,
            0.0015693408204242587,
            0.010562093928456306,
            0.002878817729651928,
            -0.008500652387738228,
            -0.009903369471430779,
            -0.0017097147647291422,
            -0.0064088040962815285,
            0.02633526921272278,
            -0.004388284403830767,
            0.0038598414976149797,
            7.540143997175619e-05,
            0.003482992062345147,
            0.001153994700871408,
            0.00759334210306406,
            -0.023342683911323547,
            -0.00592586537823081
          ],
          [
            -0.022381024435162544,
            -0.00814311858266592,
            -0.008140387013554573,
            -0.008192709647119045,
            -0.001701075816527009,
            0.006755059119313955,
            -0.0036363995168358088,
            0.011577471159398556,
            -0.01757558062672615,
            0.021890442818403244,
            0.019433457404375076,
            -0.01639610528945923,
            -0.002837877254933119,
            0.015485049225389957,
            -0.024195507168769836,
            0.0049719857051968575,
            0.017078354954719543,
            0.012701739557087421,
            -0.013552646152675152,
            0.009725342504680157,
            -0.0008373305317945778,
            -0.011712723411619663,
            -0.0018600506009534001,
            -0.0010358297731727362,
            0.0027036028914153576,
            -0.008794539608061314,
            -0.02357703633606434,
            -0.0019017293816432357,
            0.009674113243818283,
            0.0013205228606238961,
            0.0042153759859502316,
            0.005081214010715485
          ],
          [
            -0.015791820362210274,
            -0.00782353151589632,
            -0.0013006553053855896,
            -0.007319188676774502,
            -0.008365494199097157,
            0.008112478069961071,
            0.004291963763535023,
            -0.014317948371171951,
            0.02286672033369541,
            -0.004602149128913879,
            0.020100239664316177,
            0.017969071865081787,
            0.01501536089926958,
            -0.004425921477377415,
            0.009426509030163288,
            0.004551105201244354,
            -0.008356775157153606,
            -0.009082508273422718,
            0.0029439821373671293,
            0.009212411940097809,
            -0.010204847902059555,
            0.0022924889344722033,
            -0.003236830234527588,
            0.00012362701818346977,
            -0.006388904061168432,
            0.00678980490192771,
            0.004004725720733404,
            -0.013126043602824211,
            -0.0014095191145315766,
            -0.0008566637989133596,
            0.0009531077230349183,
            0.01882225088775158
          ],
          [
            0.016835257411003113,
            0.00365808536298573,
            0.017600424587726593,
            -0.0032923321705311537,
            -0.004627741873264313,
            0.0028428714722394943,
            -0.022246483713388443,
            0.011321602389216423,
            -0.025619802996516228,
            -0.00476050516590476,
            -0.01402261108160019,
            -0.002278151921927929,
            -0.009627253748476505,
            -0.014457320794463158,
            0.002544006798416376,
            0.005220182705670595,
            -0.01286907959729433,
            0.000839371932670474,
            -0.014470298774540424,
            0.0030360170640051365,
            0.013401273638010025,
            0.013304571621119976,
            -0.009368211030960083,
            0.011821762658655643,
            0.010161773301661015,
            -0.001981568755581975,
            0.021134676411747932,
            0.002564649796113372,
            -0.0009005673928186297,
            -0.004148506093770266,
            0.0016711743082851171,
            0.0008007900905795395
          ],
          [
            0.006433727685362101,
            -0.009859463199973106,
            -0.007414771243929863,
            0.0036178429145365953,
            -0.010454686358571053,
            -0.002068164525553584,
            -0.0023989558685570955,
            -0.007739880587905645,
            0.0030609818641096354,
            0.0029659406282007694,
            0.0020251015666872263,
            0.001311514643020928,
            -0.007087509613484144,
            0.00980846956372261,
            0.0007920326315797865,
            -0.0015351880574598908,
            -0.010228505358099937,
            -0.0013185397256165743,
            -0.017030633985996246,
            0.0033663094509392977,
            0.0076120044104754925,
            -0.012857860885560513,
            -0.012037836015224457,
            -0.008744350634515285,
            0.016955992206931114,
            0.015409491024911404,
            -0.0008220575982704759,
            0.016526658087968826,
            -0.006854111794382334,
            -0.009759281761944294,
            0.005383440293371677,
            0.002478822832927108
          ],
          [
            0.003151991404592991,
            0.007125046104192734,
            0.018184645101428032,
            0.005622538272291422,
            0.006217871326953173,
            -0.017594030126929283,
            0.008148291148245335,
            -0.017757438123226166,
            -5.290202170726843e-05,
            0.003992128651589155,
            -0.028542757034301758,
            -0.00844082236289978,
            -0.0010693888179957867,
            0.005554782692342997,
            -0.006922041531652212,
            4.664346488425508e-05,
            0.002327941358089447,
            -0.00960094016045332,
            0.011323552578687668,
            -0.014523436315357685,
            0.004248430952429771,
            0.011324506253004074,
            -0.0037063714116811752,
            -0.007870088331401348,
            -0.011305524036288261,
            -0.019019795581698418,
            0.0008231926476582885,
            -0.011282193474471569,
            -0.004255194682627916,
            -0.00351975136436522,
            -0.0007982193492352962,
            -0.0028308038599789143
          ],
          [
            0.0018741084495559335,
            0.0038466232363134623,
            -0.0021688523702323437,
            0.0036860250402241945,
            -0.0030366794671863317,
            -0.008122053928673267,
            0.002215426880866289,
            -0.000697873707395047,
            0.009693684987723827,
            0.005047947634011507,
            0.02296387404203415,
            0.006915376987308264,
            0.008604218252003193,
            0.01550155971199274,
            0.003308568848297,
            -0.010455118492245674,
            -0.0004609068273566663,
            -0.017963534221053123,
            -0.005602662917226553,
            -0.004751522559672594,
            -0.005085830111056566,
            -0.002902344800531864,
            0.010620508342981339,
            0.013948311097919941,
            0.007859019562602043,
            0.013488740660250187,
            -0.010490749031305313,
            0.009083758108317852,
            0.005840003956109285,
            0.016168328002095222,
            -0.016393741592764854,
            -0.0010460356716066599
          ],
          [
            -0.008860244415700436,
            0.001138622872531414,
            -0.024594560265541077,
            -0.023744601756334305,
            -0.007235425058752298,
            -0.015509920194745064,
            -0.002047450514510274,
            -0.0010170298628509045,
            -0.0377025380730629,
            0.008951324038207531,
            -0.0204080231487751,
            -0.025848107412457466,
            0.011685501784086227,
            0.02417539246380329,
            0.008171592839062214,
            0.008945251815021038,
            0.010090562514960766,
            -0.01214542891830206,
            0.009040066972374916,
            -0.016567012295126915,
            -0.024244973435997963,
            -0.00024839086108841,
            -0.008637064136564732,
            -0.020712867379188538,
            0.0051460484974086285,
            0.0013077931944280863,
            0.015692872926592827,
            0.002851869910955429,
            0.0024732304736971855,
            0.016924262046813965,
            0.01319891307502985,
            0.009067139588296413
          ],
          [
            0.005597908981144428,
            0.02037922292947769,
            -0.012496049515902996,
            0.008284852840006351,
            0.004403676837682724,
            0.011567577719688416,
            0.004847705364227295,
            -0.0028771867509931326,
            -0.021261950954794884,
            0.020150505006313324,
            -0.01307870913296938,
            -0.023995760828256607,
            -0.010815605521202087,
            -0.011039718054234982,
            0.01071095559746027,
            0.018289895728230476,
            0.010003144852817059,
            0.01852116733789444,
            -0.004684010054916143,
            -0.006674193777143955,
            -0.013213975355029106,
            -8.714941941434518e-05,
            -0.017566701397299767,
            -0.02020218037068844,
            -0.013582895509898663,
            0.010590405203402042,
            0.020021460950374603,
            0.007734351791441441,
            0.004271568264812231,
            -0.008412047289311886,
            0.014141269028186798,
            -0.002805333351716399
          ],
          [
            0.0005479587125591934,
            -0.022317076101899147,
            -0.007835237309336662,
            -0.010202630423009396,
            0.0005321778589859605,
            -0.006677842698991299,
            -0.016581250354647636,
            0.006408493034541607,
            0.004308223724365234,
            0.00353992753662169,
            0.016118939965963364,
            0.02224264107644558,
            0.015668852254748344,
            0.011736812070012093,
            0.019990907981991768,
            0.006206553895026445,
            0.00596971157938242,
            0.007294110953807831,
            0.019316766411066055,
            0.006434990558773279,
            0.0031963102519512177,
            -0.015130089595913887,
            0.0021953927353024483,
            -0.007007228676229715,
            -0.006291839759796858,
            0.005887390114367008,
            0.002475229324772954,
            0.009507727809250355,
            -0.003568414831534028,
            0.00020819046767428517,
            -0.008606979623436928,
            0.0023037034552544355
          ],
          [
            -0.007413199637085199,
            -0.0071905795484781265,
            -0.01579386740922928,
            -0.0022133674938231707,
            0.002308817347511649,
            0.016829872503876686,
            -0.005730561912059784,
            0.020498620346188545,
            0.008347135968506336,
            -0.0037433297839015722,
            0.03171380236744881,
            0.013711522333323956,
            -0.01817150227725506,
            -0.01600111834704876,
            -0.017021335661411285,
            -0.0036714456509798765,
            0.013067482970654964,
            0.010197199881076813,
            0.005105985794216394,
            0.017299510538578033,
            -0.0023536814842373133,
            -0.0017044333508238196,
            -0.014402491971850395,
            -0.014067232608795166,
            0.016036562621593475,
            -0.004310675896704197,
            0.004536873660981655,
            -0.01652897149324417,
            0.0007612894405610859,
            -0.010379670187830925,
            0.003796868957579136,
            0.005499963648617268
          ],
          [
            -0.0008000517264008522,
            -0.002193826250731945,
            0.004136921372264624,
            0.00917318370193243,
            -0.0025364526081830263,
            -0.006343370769172907,
            0.004123914986848831,
            -0.011563886888325214,
            -0.022226078435778618,
            0.007977248169481754,
            0.012760401703417301,
            -0.00590737909078598,
            -0.006847861222922802,
            0.0025915619917213917,
            -0.001722840708680451,
            0.0028074276633560658,
            -0.0021719213109463453,
            0.007201300468295813,
            0.004259169101715088,
            -0.00944748055189848,
            0.00344334845431149,
            0.005696703214198351,
            -0.006589171476662159,
            0.009753487072885036,
            3.989812466898002e-05,
            -3.797739918809384e-05,
            0.0027044201269745827,
            -0.00638181809335947,
            -0.0056349714286625385,
            -0.00837526936084032,
            -0.010451866313815117,
            0.013812796212732792
          ],
          [
            -0.004619433544576168,
            0.012297292239964008,
            -0.020436324179172516,
            0.0011299204779788852,
            -0.0048630014061927795,
            0.00555284833535552,
            -0.007545144762843847,
            0.011774791404604912,
            0.02010784111917019,
            0.006251972634345293,
            -0.006092840805649757,
            0.006374123506247997,
            -0.016439711675047874,
            -0.013134852051734924,
            0.005677292123436928,
            -0.009622372686862946,
            -0.0004316476115491241,
            0.004049922805279493,
            0.011773047037422657,
            0.0018452240619808435,
            -0.0043958029709756374,
            0.007708425167948008,
            0.01283839251846075,
            -0.01045406237244606,
            0.01667633093893528,
            -0.013207482174038887,
            0.015931332483887672,
            -0.01337670348584652,
            0.0109099755063653,
            -0.0024238526821136475,
            0.016295555979013443,
            -0.010886252857744694
          ],
          [
            0.00048277253517881036,
            -0.00499051995575428,
            -0.0036022134590893984,
            -0.007325276266783476,
            -0.008764264173805714,
            0.005945637356489897,
            -0.0061264620162546635,
            1.6062022041296586e-05,
            -0.0326002798974514,
            0.00213913107290864,
            -0.007754962425678968,
            -0.002473608125001192,
            -0.007203863933682442,
            -0.002160807605832815,
            0.019067835062742233,
            -0.016104156151413918,
            0.003314192174002528,
            -0.01615864224731922,
            -0.007774510886520147,
            -0.00951940007507801,
            0.0029749665409326553,
            -0.017492175102233887,
            0.00252465414814651,
            -0.00984912645071745,
            0.017527606338262558,
            0.0005695072468370199,
            -0.0005910308100283146,
            -0.0008470407337881625,
            -0.00354468054138124,
            -0.004349165130406618,
            0.013357789255678654,
            0.0012601074995473027
          ],
          [
            -0.017349347472190857,
            -0.009703163988888264,
            -0.015715938061475754,
            -2.0752366253873333e-05,
            0.0022930363193154335,
            -0.011100588366389275,
            -0.0051874578930437565,
            -0.008179538883268833,
            -0.014571398496627808,
            0.013070515356957912,
            0.022676454856991768,
            -0.0007325318874791265,
            0.0023288102820515633,
            -0.015705274417996407,
            0.01700746826827526,
            0.0026744308415800333,
            0.00569157162681222,
            -0.010065707378089428,
            0.011572339572012424,
            0.013841196894645691,
            -0.0005752429715357721,
            -0.0023827694822102785,
            -0.016630155965685844,
            -0.005835940130054951,
            -0.003164415480569005,
            0.013931927271187305,
            -0.02438204735517502,
            -0.010111602954566479,
            0.0090946014970541,
            0.012184744700789452,
            -0.0003520361497066915,
            0.0016665732255205512
          ],
          [
            -0.0013721962459385395,
            0.0053691500797867775,
            -0.004617125727236271,
            0.003905822988599539,
            -0.016777362674474716,
            0.011956866830587387,
            0.007333969697356224,
            -0.006149687804281712,
            0.0012909302022308111,
            0.006627288646996021,
            0.000689479464199394,
            0.0006065815105102956,
            -0.009560288861393929,
            0.009408070705831051,
            0.008802095428109169,
            0.01029418408870697,
            -0.011088657192885876,
            0.017668351531028748,
            0.008479849435389042,
            -0.007749501615762711,
            0.01306912675499916,
            -0.0009171069832518697,
            0.017988262698054314,
            -0.01630793884396553,
            -0.0023219813592731953,
            0.006327149923890829,
            -0.014672928489744663,
            -0.016003992408514023,
            0.0007160645327530801,
            -0.0018419816624373198,
            0.017794182524085045,
            -0.017092127352952957
          ],
          [
            -0.014239547774195671,
            -0.011431061662733555,
            0.0065549155697226524,
            0.0043194908648729324,
            -0.0008067949092946947,
            -0.013244478031992912,
            -0.0002990982320625335,
            -0.0029838562477380037,
            0.013256932608783245,
            -0.012397848069667816,
            -0.009910724125802517,
            0.005200037732720375,
            0.005543275736272335,
            0.012997054494917393,
            -0.010988665744662285,
            -0.004954801872372627,
            0.01721102185547352,
            0.002445085207000375,
            0.009335109032690525,
            0.010958320461213589,
            -0.004083247855305672,
            0.0030443230643868446,
            0.011522375047206879,
            0.02227979712188244,
            -0.001386808231472969,
            0.00973687693476677,
            -0.0008239729795604944,
            -0.010724810883402824,
            0.012745578773319721,
            -0.0017452260944992304,
            0.01222800649702549,
            0.023692401126027107
          ],
          [
            -0.014184271916747093,
            -0.014762450940907001,
            -0.01742098294198513,
            0.004471459425985813,
            -0.004834373015910387,
            0.0031412094831466675,
            0.03506357967853546,
            -0.0024678988847881556,
            0.01052032969892025,
            0.031849488615989685,
            0.04858662933111191,
            -0.02410070411860943,
            -0.012986200861632824,
            0.00990052055567503,
            0.031526774168014526,
            0.0194564051926136,
            -0.010800737887620926,
            -0.002223370596766472,
            -0.0007360185845755041,
            -0.024399951100349426,
            0.012432201765477657,
            -0.004995580296963453,
            -0.00845214631408453,
            -0.0017691176617518067,
            -0.011700335890054703,
            0.005895411130040884,
            -0.002701678778976202,
            0.006936822552233934,
            -0.01856253482401371,
            -0.013780190609395504,
            -0.002503701252862811,
            -0.01999085210263729
          ],
          [
            -0.016241559758782387,
            0.022474220022559166,
            0.0014475088100880384,
            -0.004485356155782938,
            -0.011791996657848358,
            -0.012561953626573086,
            0.002384552964940667,
            0.0061308275908231735,
            -0.015373202040791512,
            -0.017910830676555634,
            -0.004569611046463251,
            -0.00035537962685339153,
            -0.013557998463511467,
            -0.002323881722986698,
            -0.01932712458074093,
            -0.0047605917789042,
            0.0031955884769558907,
            -0.003684885334223509,
            0.0037902335170656443,
            -0.008396516554057598,
            0.005397364031523466,
            0.021874861791729927,
            0.009343264624476433,
            0.010943466797471046,
            -0.009305130690336227,
            -0.01982797496020794,
            0.004334325436502695,
            0.0055906083434820175,
            -0.0014947009040042758,
            -0.003812882350757718,
            0.0067772953771054745,
            0.00360962119884789
          ],
          [
            0.01133301667869091,
            -0.0006164321675896645,
            0.015553015284240246,
            -0.0068822745233774185,
            0.005830632988363504,
            0.01678936555981636,
            0.0027192167472094297,
            0.003683830378577113,
            -0.005401176400482655,
            -0.01067500188946724,
            -0.009542678482830524,
            0.0008721657213754952,
            0.0013148601865395904,
            0.007825613021850586,
            0.009061401709914207,
            -0.012122701853513718,
            -0.009232787415385246,
            0.012647476978600025,
            0.001131232362240553,
            -0.010197081603109837,
            -0.014912234619259834,
            0.0034879310987889767,
            0.005000223871320486,
            0.011876240372657776,
            0.0154424998909235,
            -0.01332860253751278,
            0.010408634319901466,
            -0.006742593366652727,
            -0.0011077789822593331,
            0.012192225083708763,
            -0.003071401733905077,
            0.004569665063172579
          ],
          [
            -0.018610602244734764,
            -0.015799181535840034,
            -0.000560256652534008,
            0.0043547796085476875,
            0.01127021573483944,
            -0.004604268819093704,
            0.015236610546708107,
            0.007443096488714218,
            -0.013035467825829983,
            0.017046678811311722,
            -0.008408735506236553,
            -0.0159816462546587,
            0.007546155247837305,
            0.006018721964210272,
            0.00919888261705637,
            0.008216890506446362,
            0.017750663682818413,
            0.007734911981970072,
            -0.005269365850836039,
            0.008627665229141712,
            -0.016348643228411674,
            0.0047883642837405205,
            -0.005343036260455847,
            0.0039106495678424835,
            -0.0023460085503757,
            -0.008607626892626286,
            0.005475746933370829,
            -0.0052847592160105705,
            -0.0004987663705833256,
            -0.010521694086492062,
            0.00652460427954793,
            0.008975698612630367
          ],
          [
            0.015257873572409153,
            -0.005452799145132303,
            0.0008174745598807931,
            0.01027610432356596,
            -0.013440404087305069,
            0.00048156894627027214,
            -0.005203496664762497,
            -0.011634303256869316,
            0.00011646309576462954,
            -0.0001464432425564155,
            0.013858462683856487,
            0.0008078328683041036,
            0.0031905395444482565,
            -0.02277134358882904,
            0.0008981167920865119,
            0.006687036249786615,
            0.014922020956873894,
            0.006608195602893829,
            -0.014044069685041904,
            0.010723570361733437,
            -0.0008634695550426841,
            0.0011525399750098586,
            -0.010178201831877232,
            -0.007640223950147629,
            0.013163975439965725,
            -0.007401017006486654,
            -0.015566923655569553,
            -0.0010873919818550348,
            0.005093743558973074,
            -0.004192471504211426,
            0.013607530854642391,
            -0.014164875261485577
          ],
          [
            -0.005625495221465826,
            -0.005075028631836176,
            0.014136923477053642,
            0.0015685587422922254,
            0.00823616236448288,
            0.003954031504690647,
            0.023070810362696648,
            0.006848905701190233,
            0.04899709299206734,
            -0.0024482894223183393,
            -0.02827516943216324,
            0.0116500835865736,
            -0.012077796272933483,
            -0.0027576289139688015,
            -0.022653529420495033,
            -0.024781469255685806,
            0.014133247546851635,
            0.0050155995413661,
            0.013277462683618069,
            0.013232462108135223,
            0.016025666147470474,
            -0.0013915279414504766,
            0.011932347901165485,
            0.009463457390666008,
            0.002064867876470089,
            -0.0018135621212422848,
            -0.0053743766620755196,
            -0.007481144275516272,
            0.01319625973701477,
            -0.012029331177473068,
            -0.01983313262462616,
            -0.0012303198454901576
          ],
          [
            -0.006829589139670134,
            0.005992232356220484,
            -0.005866801366209984,
            0.004708376247435808,
            -0.0008688979432918131,
            0.005472388584166765,
            0.005618562921881676,
            0.007232137024402618,
            -0.004082095343619585,
            -0.003377734450623393,
            -0.0008725634543225169,
            -0.00376842450350523,
            -0.004821714013814926,
            -0.014096686616539955,
            -0.015182321891188622,
            0.01003390084952116,
            0.006557393353432417,
            0.016006825491786003,
            0.011520746164023876,
            0.0036030523478984833,
            -0.014738122001290321,
            -0.005322595126926899,
            -0.015492760576307774,
            0.0056174094788730145,
            -0.004014298319816589,
            -0.008249081671237946,
            0.01620440185070038,
            0.010119701735675335,
            -0.01020742766559124,
            0.0007960984366945922,
            0.007346468977630138,
            0.013181912712752819
          ],
          [
            0.014752916060388088,
            0.004900756292045116,
            -0.008604909293353558,
            -0.0014197406126186252,
            -0.01170397363603115,
            -0.005922556389123201,
            0.0013181878020986915,
            0.012303490191698074,
            0.015059754252433777,
            -0.004552548751235008,
            -0.006031813099980354,
            -0.014302543364465237,
            -0.006434554699808359,
            0.007340270094573498,
            -0.006830897647887468,
            -0.0013005492510274053,
            -0.01138302031904459,
            -0.020607901737093925,
            0.0017925235442817211,
            -0.007680751848965883,
            0.006952040363103151,
            -0.002248150762170553,
            0.007862791419029236,
            0.00748412637040019,
            -0.010182952508330345,
            -0.0030323255341500044,
            0.011358645744621754,
            -0.005643964745104313,
            0.0036378703080117702,
            -0.0066930390894412994,
            -0.000552461133338511,
            -0.01990927755832672
          ],
          [
            0.008169719018042088,
            -0.004854907281696796,
            -0.01482402067631483,
            -0.01444450207054615,
            0.004919336177408695,
            -0.015070279128849506,
            0.03465345874428749,
            -0.006993893068283796,
            0.031411852687597275,
            0.014874552376568317,
            0.00407706294208765,
            -0.005537519231438637,
            0.02007446438074112,
            0.011769837699830532,
            0.006419947370886803,
            0.02272883616387844,
            -0.007022609934210777,
            -0.020422089844942093,
            0.00548710348084569,
            -0.017567643895745277,
            -0.012712063267827034,
            -0.010983661748468876,
            0.003356889123097062,
            0.010212079621851444,
            -0.008964542299509048,
            -0.014099296182394028,
            -0.007083733566105366,
            -0.0001293984241783619,
            0.004516698885709047,
            0.01779092662036419,
            -0.007496863137930632,
            0.018111543729901314
          ],
          [
            0.0012367565650492907,
            0.0025296728126704693,
            0.007505814544856548,
            -0.003995559643954039,
            -0.0027095023542642593,
            -0.03007904812693596,
            0.014418615959584713,
            -0.0010993470204994082,
            0.037383899092674255,
            0.014596576802432537,
            -0.030097175389528275,
            -0.03755103051662445,
            0.0020160358399152756,
            0.0008761694771237671,
            0.004094322212040424,
            -0.004133440554141998,
            0.01112961396574974,
            -0.017904233187437057,
            0.02431056834757328,
            -0.012391764670610428,
            0.006743972655385733,
            0.005082389805465937,
            -0.0027410092297941446,
            0.012908022850751877,
            -0.02775939367711544,
            0.00956234522163868,
            -0.0006017701234668493,
            0.0013696582755073905,
            0.014439530670642853,
            0.008046655915677547,
            0.007295807357877493,
            0.013104420155286789
          ],
          [
            -0.015428070910274982,
            0.0031437224242836237,
            0.002673134207725525,
            0.005244615487754345,
            0.010602226480841637,
            0.02298092097043991,
            -0.006444592960178852,
            -0.006111630238592625,
            0.019899701699614525,
            -0.016131330281496048,
            -0.010888056829571724,
            0.011773854494094849,
            0.008124429732561111,
            0.003085590898990631,
            -0.005716570187360048,
            -0.01484158355742693,
            0.0040223789401352406,
            0.018679626286029816,
            -0.007358985021710396,
            -0.00556319672614336,
            0.006267982069402933,
            0.0025287256576120853,
            -0.008228737860918045,
            -0.001327267847955227,
            -0.0023067034780979156,
            0.004735829774290323,
            -0.004014912992715836,
            0.004282750189304352,
            -0.00918551441282034,
            -0.0006470836233347654,
            -0.0001938641507877037,
            -0.004123304970562458
          ],
          [
            -0.005446980707347393,
            0.005039349664002657,
            -0.01588239148259163,
            -0.005611435975879431,
            0.0202176570892334,
            0.002081671031191945,
            0.023869529366493225,
            -0.0023987567983567715,
            0.030678831040859222,
            0.0036775122862309217,
            0.03077825903892517,
            0.0216587595641613,
            0.015539825893938541,
            -0.002652176655828953,
            0.017072206363081932,
            0.005001223646104336,
            0.016515400260686874,
            0.016977068036794662,
            0.014222782105207443,
            -0.004649973940104246,
            -0.02680770494043827,
            0.011129469610750675,
            -0.018006907775998116,
            -0.0022740124259144068,
            0.004957756958901882,
            -0.00745067885145545,
            -0.0005653667030856013,
            -0.007738539483398199,
            0.0004347324720583856,
            -0.0009510983363725245,
            0.0005439145606942475,
            0.021180637180805206
          ],
          [
            0.012229702435433865,
            -0.000522285292390734,
            0.006111687049269676,
            -0.020648522302508354,
            0.00047511421144008636,
            -0.012631360441446304,
            -0.0038807156961411238,
            -0.015204627066850662,
            -0.0005547174368984997,
            -0.01035576406866312,
            0.02267250046133995,
            0.008566885255277157,
            0.008893604390323162,
            0.004775917157530785,
            0.00048488014726899564,
            -0.013197040185332298,
            -0.0074256896041333675,
            -0.02164265140891075,
            0.01917097344994545,
            0.009089208208024502,
            0.015793530270457268,
            -0.01578371599316597,
            -0.005829919595271349,
            0.003904807846993208,
            0.0061148907989263535,
            0.01855875365436077,
            -0.009657462127506733,
            0.006945016328245401,
            -0.0015983062330633402,
            -0.0008376118494197726,
            0.005407174117863178,
            -0.005100882146507502
          ]
        ],
        "net.1.linear.bias": [
          -0.08780257403850555,
          -0.14554929733276367,
          0.006785035599023104,
          -0.11614266782999039,
          0.149993896484375,
          -0.17406189441680908,
          0.0698586106300354,
          0.1746772825717926,
          0.08726689219474792,
          0.060624804347753525,
          -0.16062957048416138,
          0.15551351010799408,
          -0.029627932235598564,
          -0.16495190560817719,
          0.16776065528392792,
          -0.08448454737663269,
          0.006483644712716341,
          0.1640782356262207,
          -0.12082216143608093,
          -0.14891617000102997,
          0.029219428077340126,
          -0.029339412227272987,
          0.04130804166197777,
          -0.1281142234802246,
          0.005929706152528524,
          -0.07504624128341675,
          -0.07406632602214813,
          -0.1750687062740326,
          0.08410707861185074,
          0.02789490856230259,
          -0.14039446413516998,
          0.13524654507637024
        ],
        "net.2.linear.weight": [
          [
            0.00047222196008078754,
            0.004240735433995724,
            -0.004353620111942291,
            0.00660199299454689,
            0.007139781955629587,
            -0.00734464917331934,
            -0.014698274433612823,
            -0.00664871372282505,
            -0.013933381997048855,
            -0.003485902212560177,
            -0.006776889320462942,
            -0.0031190356239676476,
            0.019042039290070534,
            0.0011186684714630246,
            -0.008239354938268661,
            -0.00934047345072031,
            0.010998194105923176,
            -0.0013591311872005463,
            0.005254949908703566,
            -0.0073201339691877365,
            -0.007928741164505482,
            0.005920581519603729,
            -0.013843497261404991,
            0.0032438223715871572,
            0.0013734232634305954,
            0.003269041422754526,
            0.0021857323590666056,
            0.004703736864030361,
            0.003950855694711208,
            0.0013079522177577019,
            0.0069542876444756985,
            -0.004754612222313881
          ],
          [
            -0.011548654176294804,
            -0.0029194680973887444,
            -0.0033165032509714365,
            0.017755262553691864,
            -0.004382572136819363,
            -0.025252537801861763,
            -0.022171270102262497,
            0.005858874414116144,
            0.0009480298031121492,
            0.006683035753667355,
            0.02431819960474968,
            -0.014035247266292572,
            -0.009211382828652859,
            -0.011759462766349316,
            -0.010585356503725052,
            0.008072346448898315,
            -0.015481128357350826,
            -0.02362865023314953,
            -0.005259733647108078,
            0.008576799184083939,
            0.0027116304263472557,
            0.016270175576210022,
            0.012006242759525776,
            0.000678437587339431,
            0.022476766258478165,
            0.009768906980752945,
            0.0024902953300625086,
            -0.04654184728860855,
            0.04943985119462013,
            0.02279352769255638,
            -0.015608994290232658,
            0.017293689772486687
          ],
          [
            -0.0028037941083312035,
            0.0018819645047187805,
            0.006027945317327976,
            0.0002833908365573734,
            -0.008996346034109592,
            -0.0037015860434621572,
            0.004002678208053112,
            0.006983355153352022,
            -0.008452090434730053,
            0.0022558190394192934,
            -0.007732938975095749,
            0.00874327588826418,
            0.0024517998099327087,
            0.0016911195125430822,
            0.005163028836250305,
            -0.003769101109355688,
            0.0038880929350852966,
            0.00624851742759347,
            -0.015196933411061764,
            -0.0021781132090836763,
            0.0011609263019636273,
            0.0008228344959206879,
            0.0029457593336701393,
            -0.011336767114698887,
            0.0012487738858908415,
            0.0026728101074695587,
            -0.010201072320342064,
            -0.004739653784781694,
            -0.005055381916463375,
            -0.003575119422748685,
            0.0008547871257178485,
            5.054237408330664e-05
          ],
          [
            0.00516334967687726,
            -0.0027545595075935125,
            -0.0012474408140406013,
            -0.005193259567022324,
            0.0021225870586931705,
            -0.01707746647298336,
            -0.010496437549591064,
            -0.013430651277303696,
            -0.00164798425976187,
            -0.0011216280981898308,
            0.005187203176319599,
            0.006404941435903311,
            0.004101683385670185,
            -0.012803034856915474,
            0.012313658371567726,
            -0.0023333304561674595,
            -0.010001611895859241,
            -0.008303397335112095,
            0.0045771608129143715,
            0.000807632808573544,
            -0.003911725245416164,
            -0.009162433445453644,
            -0.005041107069700956,
            -0.009417960420250893,
            0.002081579063087702,
            -0.007895168848335743,
            0.005756570491939783,
            0.0021027822513133287,
            -0.0008324415539391339,
            -8.428529690718278e-05,
            0.0014989717165008187,
            0.0002048775349976495
          ],
          [
            -0.004244035109877586,
            -0.008756355382502079,
            0.0034056261647492647,
            0.01170555129647255,
            -0.007990216836333275,
            0.013069392181932926,
            0.00015437809634022415,
            -0.0003940682508982718,
            -0.0006621475913561881,
            -0.005718787666410208,
            -0.0075554694049060345,
            -0.010111603885889053,
            -0.00451172050088644,
            0.0020783920772373676,
            -0.003310222877189517,
            -0.001983854454010725,
            0.0033861182164400816,
            0.0003292299516033381,
            0.0018195020966231823,
            0.002373871160671115,
            0.0021632397547364235,
            0.002279038308188319,
            0.011702761985361576,
            0.017370019108057022,
            0.000294307479634881,
            0.006662026979029179,
            -0.010285485535860062,
            0.007761396002024412,
            -0.005716534797102213,
            -0.0009107685764320195,
            0.0011688938830047846,
            -0.004426717758178711
          ],
          [
            0.008022102527320385,
            0.01012458186596632,
            -0.008093414828181267,
            0.0008481270633637905,
            0.004297549370676279,
            -0.017734836786985397,
            -0.002861644607037306,
            -0.016856728121638298,
            -5.489294562721625e-05,
            -0.006395998876541853,
            0.0029770906548947096,
            -0.011842581443488598,
            -0.013459187000989914,
            0.014024745672941208,
            -0.005101928953081369,
            -0.0068814740516245365,
            0.008925518952310085,
            -0.008034856989979744,
            -0.007746666204184294,
            -0.0061809890903532505,
            -0.013693518005311489,
            -0.01652573235332966,
            -0.008559602312743664,
            0.007066832389682531,
            -0.008099760860204697,
            -0.008644845336675644,
            0.003783229272812605,
            0.0038258738350123167,
            -0.004040102940052748,
            0.005721437744796276,
            0.001421070657670498,
            -0.005631128326058388
          ],
          [
            -0.0014713848941028118,
            -0.014153044670820236,
            0.005086984019726515,
            -0.005516972858458757,
            0.019654594361782074,
            -0.01963060162961483,
            0.008598321117460728,
            0.0008479999378323555,
            0.005252720322459936,
            -0.004159869160503149,
            -0.006894242018461227,
            0.0023111251648515463,
            0.006350409239530563,
            -0.014531990513205528,
            0.0007099912618286908,
            0.007262557744979858,
            -0.00010107329580932856,
            -0.004705818835645914,
            -0.0027829804457724094,
            0.0008186025079339743,
            0.003917722962796688,
            0.01358740497380495,
            0.0018222032813355327,
            -0.002328120404854417,
            -0.005858974996954203,
            -0.0004391456313896924,
            0.002609005430713296,
            -0.015818854793906212,
            -0.0016610382590442896,
            -0.010383701883256435,
            -0.005159854888916016,
            -0.0017027975991368294
          ],
          [
            -0.020195771008729935,
            0.0010203974088653922,
            -0.002124658552929759,
            -0.0006075795390643179,
            -0.0018181485356763005,
            0.004490172024816275,
            0.0031201429665088654,
            0.009034891612827778,
            0.00584961473941803,
            -0.0035262240562587976,
            -0.003475623670965433,
            0.00782023835927248,
            -0.0017438736977055669,
            0.008300689980387688,
            -0.013624749146401882,
            0.009123004041612148,
            0.020935198292136192,
            -0.0006798005779273808,
            0.0034754322841763496,
            -0.0012210687855258584,
            -0.012537559494376183,
            0.00629000598564744,
            -0.002484627068042755,
            -0.016457872465252876,
            -0.004686504602432251,
            0.0031503974460065365,
            0.0003707021242007613,
            0.0007472765864804387,
            -0.0010654055513441563,
            0.004038712941110134,
            0.0012834471417590976,
            0.00718288728967309
          ],
          [
            0.00023566914023831487,
            -0.012571527622640133,
            0.030743757262825966,
            -0.014073895290493965,
            0.014647663570940495,
            0.0015130493557080626,
            -0.0026724333874881268,
            -0.012694764882326126,
            0.03813754394650459,
            0.02237621881067753,
            -0.03820807486772537,
            -0.0037266043946146965,
            -0.016527138650417328,
            -0.02082119882106781,
            0.004753529094159603,
            0.002649205271154642,
            0.0029974267818033695,
            -0.008191526867449284,
            0.0018259488278999925,
            -0.0659213736653328,
            -0.0030491205397993326,
            0.022941138595342636,
            -0.022861912846565247,
            0.011742150411009789,
            0.015894988551735878,
            0.0030460641719400883,
            0.00045734623563475907,
            -0.015065198764204979,
            -0.014643481001257896,
            -0.023923469707369804,
            -0.004412948619574308,
            0.0007636397494934499
          ],
          [
            -0.021501729264855385,
            0.01697751134634018,
            -0.04646660014986992,
            -0.0022440110333263874,
            -0.015908267349004745,
            -0.023288041353225708,
            0.02542218007147312,
            -0.016508085653185844,
            0.00036597606958821416,
            0.0739007443189621,
            -0.03498271480202675,
            -0.008325855247676373,
            0.008392163552343845,
            0.016292713582515717,
            0.03209086135029793,
            -0.010265416465699673,
            -0.009011241607367992,
            -0.01729968935251236,
            0.014813520014286041,
            -0.06911101937294006,
            0.0016923830844461918,
            0.017570512369275093,
            0.018139822408556938,
            0.007337800692766905,
            -0.01601916179060936,
            -0.0066088163293898106,
            0.0177605077624321,
            -0.016326017677783966,
            0.003311729058623314,
            0.006862801965326071,
            0.0012525853235274553,
            0.005662343930453062
          ],
          [
            0.001798987970687449,
            0.0004962017992511392,
            -0.006155804265290499,
            0.00040896356222219765,
            -0.008333123289048672,
            0.0064157042652368546,
            0.003237652825191617,
            -0.01616901531815529,
            0.0021777681540697813,
            0.0008547009201720357,
            0.0014167753979563713,
            -0.0005657214787788689,
            -0.012854657135903835,
            -0.0013293890515342355,
            -0.009951642714440823,
            -0.00021644025400746614,
            0.0007021277560852468,
            0.008230605162680149,
            0.02029341086745262,
            0.0006135160219855607,
            0.019994208589196205,
            -0.011099765077233315,
            -0.004786768462508917,
            0.019561301916837692,
            0.0029915531631559134,
            -0.005118173081427813,
            -0.00890303123742342,
            0.00013699552800972015,
            0.003210600232705474,
            0.000549657444935292,
            0.00147844513412565,
            -0.008901990950107574
          ],
          [
            -0.004533055238425732,
            -0.007591901812702417,
            -0.004858917556703091,
            0.009641366079449654,
            0.01611224375665188,
            0.002166955964639783,
            0.0013457214226946235,
            -0.012945198453962803,
            -0.005151292774826288,
            -0.00020692538237199187,
            -0.002994477516040206,
            0.000713011366315186,
            -0.007462978828698397,
            0.013653939589858055,
            -0.01703176274895668,
            0.0009453753591515124,
            0.0117224445566535,
            -0.005198374856263399,
            0.007494223769754171,
            -0.0003788927278947085,
            -0.007337968796491623,
            -0.0048048594035208225,
            -0.00014336922322399914,
            0.000835853919852525,
            -0.0003199708298780024,
            0.0021179511677473783,
            0.001008563325740397,
            0.0025374796241521835,
            0.0033627846278250217,
            0.007338174153119326,
            0.000495373154990375,
            0.004443699959665537
          ],
          [
            -0.0027697482146322727,
            0.022030692547559738,
            -0.001564634032547474,
            0.01677723228931427,
            -0.012603145092725754,
            0.004067376721650362,
            0.004432501271367073,
            -0.00045233446871861815,
            0.008748478256165981,
            -0.001869977917522192,
            0.0028657240327447653,
            -0.008537502959370613,
            -0.01052478700876236,
            0.03163972496986389,
            -0.009323256090283394,
            -0.016370858997106552,
            -0.008096026256680489,
            -0.007859519682824612,
            0.012724394910037518,
            -0.0005958653055131435,
            0.010291894897818565,
            -0.0006334882928058505,
            0.010346317663788795,
            0.015911346301436424,
            -0.0005052283522672951,
            -0.0038531851023435593,
            -0.025654340162873268,
            -7.788730727043003e-05,
            -0.00163151731248945,
            0.008670147508382797,
            -0.004152524750679731,
            -0.0036556068807840347
          ],
          [
            0.009562129154801369,
            -0.012526738457381725,
            0.008361011743545532,
            0.005135712213814259,
            0.007076037582010031,
            0.008219968527555466,
            0.0066280849277973175,
            -0.0023794639855623245,
            -0.008711731061339378,
            -0.0019383503822609782,
            0.0010933876037597656,
            0.0012066689087077975,
            0.013159506022930145,
            -0.0025750866625458,
            0.006298367399722338,
            -0.0012159746838733554,
            -0.002686811611056328,
            -0.004622878506779671,
            -0.008913436904549599,
            0.0011232435936108232,
            -0.006776462774723768,
            -0.0004347211215645075,
            -0.01158131379634142,
            -0.003255886724218726,
            -0.003794111078605056,
            -0.01286582462489605,
            0.01229263935238123,
            -0.005888377316296101,
            -0.005094817373901606,
            0.0023572982754558325,
            -0.004528285004198551,
            0.008431082591414452
          ],
          [
            -0.006475986447185278,
            -0.00245282263495028,
            0.0023449938744306564,
            0.00522430706769228,
            -0.001829521032050252,
            0.026754822582006454,
            -0.0042949398048222065,
            0.010552952066063881,
            -0.002616151235997677,
            -0.01968769170343876,
            -0.013837326318025589,
            0.01885397732257843,
            -0.00991833209991455,
            -0.014258651062846184,
            7.561829988844693e-05,
            0.0021128698717802763,
            -0.003636846086010337,
            0.0089307501912117,
            0.01759701408445835,
            0.0036841805558651686,
            -0.003796155331656337,
            0.015488970093429089,
            -0.0013678580289706588,
            -0.017413733527064323,
            0.004091684240847826,
            -0.001258271629922092,
            0.0019357778364792466,
            -0.008551683276891708,
            0.0015377389499917626,
            -0.006173799280077219,
            0.0011432062601670623,
            0.004778494127094746
          ],
          [
            -0.0041534374468028545,
            0.0030608163215219975,
            -0.006391806527972221,
            0.009436854161322117,
            0.012845296412706375,
            0.0072779045440256596,
            0.004524041432887316,
            0.008496500551700592,
            0.009034868329763412,
            -0.006435759365558624,
            0.022248608991503716,
            0.012043027207255363,
            -0.012350865639746189,
            0.007368325721472502,
            -0.006602258421480656,
            -0.010915893130004406,
            -0.024478496983647346,
            0.016477279365062714,
            0.004041493870317936,
            0.002670853165909648,
            -0.011192931793630123,
            -0.011149824596941471,
            0.015205726027488708,
            0.017720134928822517,
            0.021174564957618713,
            -0.0022909087128937244,
            0.004941263701766729,
            0.003306285012513399,
            -0.0015867758775129914,
            -0.010760081000626087,
            -0.0068960110656917095,
            -0.013304321095347404
          ],
          [
            0.0065646059811115265,
            0.0055197966285049915,
            -0.026807408779859543,
            0.019016999751329422,
            -0.0038458092603832483,
            0.021251138299703598,
            0.01408796850591898,
            0.003916642628610134,
            -0.003402545815333724,
            -0.004057124722748995,
            -0.005289415828883648,
            0.003284933278337121,
            -0.0002863513072952628,
            -0.015100748278200626,
            0.009399952366948128,
            0.01084311306476593,
            -0.006004530470818281,
            -0.016769740730524063,
            -0.007027043029665947,
            0.008203767240047455,
            0.010884799994528294,
            0.015490537509322166,
            0.005508084781467915,
            0.0035180228296667337,
            0.002238630084320903,
            0.0037268991582095623,
            -0.013515418395400047,
            0.003356154542416334,
            -0.02204187400639057,
            -0.007400640286505222,
            -0.004511927254498005,
            0.005530944559723139
          ],
          [
            0.022357841953635216,
            -0.0026677846908569336,
            0.0037977234460413456,
            0.001830117660574615,
            -0.007027043960988522,
            0.016649847850203514,
            -0.005687779746949673,
            -0.01181221753358841,
            0.010693546384572983,
            -0.0006219172501005232,
            -0.010243012569844723,
            -0.0036011510528624058,
            0.00041557609802111983,
            -0.008424144238233566,
            -0.0061655426397919655,
            -0.0018145849462598562,
            0.005221257451921701,
            0.026660747826099396,
            0.005941314622759819,
            -0.020588474348187447,
            0.001360262162052095,
            -0.01494000293314457,
            0.011007275432348251,
            0.010879261419177055,
            0.002561172703281045,
            -0.010499848984181881,
            0.006748301442712545,
            -0.014207987114787102,
            0.024319898337125778,
            -0.023840593174099922,
            -0.0027792099863290787,
            -0.010517475195229053
          ],
          [
            0.010603182017803192,
            0.0020075293723493814,
            0.005543747916817665,
            0.010893597267568111,
            -0.0032720810268074274,
            0.005236897151917219,
            0.01118845771998167,
            -0.0034059910103678703,
            0.009583353996276855,
            0.0021733958274126053,
            -0.0010369684314355254,
            -0.003266165731474757,
            -0.002719905460253358,
            -0.004544733092188835,
            -0.0021037529222667217,
            -0.0006811367929913104,
            -0.005494055338203907,
            0.008078673854470253,
            -0.012284016236662865,
            0.005013223737478256,
            0.02268882282078266,
            -0.004431170877069235,
            0.007121290545910597,
            0.0032003666274249554,
            0.005857941694557667,
            -0.00952159333974123,
            -0.0009020181023515761,
            -0.005677453242242336,
            0.0018569319508969784,
            0.002354854252189398,
            -0.002536912215873599,
            0.006567209959030151
          ],
          [
            -0.006907530128955841,
            0.005553426221013069,
            0.012244364246726036,
            0.024210069328546524,
            0.022452842444181442,
            -0.02282625250518322,
            0.009069976396858692,
            0.0024906389880925417,
            -0.013277560472488403,
            -0.007939372211694717,
            0.02534235455095768,
            0.028890272602438927,
            -0.014482691884040833,
            0.00514477863907814,
            0.00214394205249846,
            -0.009745470248162746,
            0.002932728501036763,
            0.012838820926845074,
            -0.03158019110560417,
            -0.008349133655428886,
            0.016615260392427444,
            0.013033703900873661,
            0.011269241571426392,
            0.02437889575958252,
            0.002929103095084429,
            0.013384959660470486,
            -0.004026351030915976,
            -0.010272101499140263,
            -0.02615196257829666,
            0.0003230119473300874,
            -0.09570751339197159,
            -0.005732319783419371
          ],
          [
            -0.009858367033302784,
            0.017726605758070946,
            -0.00375574454665184,
