{
  "n_layers": 8,
  "layers": [
    {
      "config": {
        "span": 8000,
        "atr_period": 2000,
        "hidden_features": 16,
        "hidden_layers": 1,
        "omega_0": 10.0,
        "lr": 0.005,
        "epochs": 2000,
        "alpha": 1.0,
        "beta": 0.5
      },
      "state_dict": {
        "net.0.linear.weight": [
          [
            0.7321447134017944
          ],
          [
            0.18456678092479706
          ],
          [
            -0.29478898644447327
          ],
          [
            0.6158481240272522
          ],
          [
            0.17603451013565063
          ],
          [
            0.7334266901016235
          ],
          [
            0.12517954409122467
          ],
          [
            -0.2588837742805481
          ],
          [
            0.22167131304740906
          ],
          [
            -0.25785312056541443
          ],
          [
            0.41805189847946167
          ],
          [
            0.8295551538467407
          ],
          [
            0.6479054093360901
          ],
          [
            -0.39968717098236084
          ],
          [
            0.5126298666000366
          ],
          [
            0.20390303432941437
          ]
        ],
        "net.0.linear.bias": [
          0.7430340647697449,
          0.16124749183654785,
          -0.44621196389198303,
          0.2902759909629822,
          -0.4467870891094208,
          -0.18653908371925354,
          -0.3921020030975342,
          0.6850488781929016,
          -0.8187897205352783,
          -0.44612520933151245,
          -0.2819307744503021,
          -0.5985918045043945,
          0.08928145468235016,
          -0.9464514851570129,
          0.8496943116188049,
          -0.8253086805343628
        ],
        "net.1.linear.weight": [
          [
            -0.05819344520568848,
            -0.022449586540460587,
            0.06525048613548279,
            -0.009469990618526936,
            -0.0349404439330101,
            -0.026053164154291153,
            -0.029009254649281502,
            -0.034128110855817795,
            -0.057370204478502274,
            0.005078899208456278,
            0.030667150393128395,
            0.02030383236706257,
            -0.006957207806408405,
            -0.03384016826748848,
            0.026239920407533646,
            -0.03255601227283478
          ],
          [
            -0.00778757780790329,
            -0.006711161229759455,
            -0.05900825187563896,
            0.00985813606530428,
            -0.03786735236644745,
            0.02538243681192398,
            -0.06305268406867981,
            -0.058672674000263214,
            -0.0023123372811824083,
            -0.06909997016191483,
            0.07556578516960144,
            0.0038242393638938665,
            -0.05241135507822037,
            -0.013490783981978893,
            0.0353885293006897,
            0.053476858884096146
          ],
          [
            0.0299499724060297,
            -0.0013342371676117182,
            -0.050674326717853546,
            -0.004410636145621538,
            0.0002856454229913652,
            -0.003987803123891354,
            -0.06192920729517937,
            0.057415783405303955,
            -0.022034794092178345,
            -0.036085035651922226,
            -0.050582412630319595,
            -0.024163296446204185,
            -0.003204727079719305,
            0.016896681860089302,
            -0.0007944916724227369,
            -0.008746622130274773
          ],
          [
            -0.03675143048167229,
            0.028506139293313026,
            0.05832473933696747,
            0.01919499598443508,
            -0.014275898225605488,
            -0.020027820020914078,
            -0.020714033395051956,
            -0.10404340922832489,
            -0.019062437117099762,
            0.06075417995452881,
            0.014555951580405235,
            -0.007175481878221035,
            0.04667980596423149,
            -0.01466530840843916,
            0.015543511137366295,
            0.026813430711627007
          ],
          [
            0.001353176892735064,
            0.023853659629821777,
            -0.03287911415100098,
            -0.04768824949860573,
            0.009498680010437965,
            -0.020643437281250954,
            -0.032390348613262177,
            0.015714891254901886,
            0.03671910986304283,
            0.03227657452225685,
            0.01343616098165512,
            -0.01826138235628605,
            -0.03210257366299629,
            0.012714446522295475,
            0.02586127072572708,
            0.014687483198940754
          ],
          [
            -0.03170430660247803,
            0.07631393522024155,
            -0.03949541971087456,
            0.00693940743803978,
            0.0073378561064600945,
            -0.021128207445144653,
            -0.044934920966625214,
            -0.09126278758049011,
            -0.024583399295806885,
            -0.008677007630467415,
            -0.018951399251818657,
            -0.02359258010983467,
            0.031107308343052864,
            0.008552005514502525,
            0.024970190599560738,
            -0.0690157562494278
          ],
          [
            -0.010553808882832527,
            0.005167418159544468,
            -0.005022077821195126,
            -0.03212427720427513,
            -0.01920628733932972,
            -0.04039083421230316,
            -0.052348364144563675,
            0.04596865922212601,
            0.04137039929628372,
            0.022271808236837387,
            0.0016842859331518412,
            -0.01316890399903059,
            -0.027433857321739197,
            0.028727937489748,
            0.009300355799496174,
            0.012428754940629005
          ],
          [
            -0.03142308443784714,
            0.018999995663762093,
            -0.05955866724252701,
            0.006564921233803034,
            -0.03888761252164841,
            0.01818215847015381,
            -0.027702106162905693,
            -0.012880265712738037,
            -0.020261116325855255,
            0.040548164397478104,
            -0.010942172259092331,
            0.07259555160999298,
            0.05690604820847511,
            -0.015084849670529366,
            -0.053300704807043076,
            0.06229429692029953
          ],
          [
            0.01972656510770321,
            -0.09811992198228836,
            0.029101449996232986,
            -0.09656071662902832,
            -0.10510677099227905,
            0.02028418518602848,
            -0.016549009829759598,
            0.04941806569695473,
            -0.035176631063222885,
            0.07821518927812576,
            -0.017826765775680542,
            -0.04628826677799225,
            -0.029093807563185692,
            0.04451070353388786,
            -0.010999881662428379,
            0.028826860710978508
          ],
          [
            0.022881217300891876,
            -0.06664901226758957,
            -0.04400310292840004,
            -0.03799445182085037,
            0.038366321474313736,
            0.05098510533571243,
            0.039154302328825,
            0.07504123449325562,
            0.06164940446615219,
            -0.011671015992760658,
            -0.02183302864432335,
            0.02665690705180168,
            -0.01915832608938217,
            -0.058520201593637466,
            0.007960021495819092,
            0.04829965904355049
          ],
          [
            0.0855560153722763,
            0.013081209734082222,
            -0.0663677230477333,
            0.04666483402252197,
            0.0001518664212198928,
            -0.08897560834884644,
            0.05599091574549675,
            -0.06807619333267212,
            0.04756662994623184,
            0.039345208555459976,
            0.06255873292684555,
            0.05744943022727966,
            0.063300222158432,
            -0.04535647854208946,
            0.05114573612809181,
            -0.0445127934217453
          ],
          [
            0.012218487448990345,
            0.04795817285776138,
            0.024959256872534752,
            -0.024008767679333687,
            -0.007579213939607143,
            -0.04539734497666359,
            0.015487865544855595,
            0.08331289887428284,
            0.04516344144940376,
            0.05746372416615486,
            -0.07356830686330795,
            -0.05190445855259895,
            -0.04998824745416641,
            0.02064836397767067,
            -0.03604983538389206,
            -0.023388050496578217
          ],
          [
            0.03716875985264778,
            -0.000977313844487071,
            -0.03053572028875351,
            -0.05450400710105896,
            0.08145008981227875,
            -0.03645480051636696,
            0.07413288205862045,
            -0.041590239852666855,
            -0.02734971232712269,
            0.04322853311896324,
            0.017500149086117744,
            0.11696138232946396,
            0.12409527599811554,
            -0.06935562193393707,
            0.043545570224523544,
            -0.03442574664950371
          ],
          [
            -0.003063303418457508,
            0.045155078172683716,
            0.07442425191402435,
            -0.0795932188630104,
            0.03706879913806915,
            0.05834252014756203,
            0.0729457288980484,
            0.014155058190226555,
            -0.09981078654527664,
            0.05277734622359276,
            -0.12433569878339767,
            0.0381869301199913,
            -0.03951283171772957,
            0.0791921317577362,
            -0.07427112013101578,
            -0.0123544130474329
          ],
          [
            0.06049327179789543,
            0.03247663751244545,
            0.07422582805156708,
            0.04259304702281952,
            0.07837472856044769,
            -0.03232603892683983,
            0.019971666857600212,
            0.06159626320004463,
            -0.05440526455640793,
            0.06293986737728119,
            -0.01947910524904728,
            -0.03921733424067497,
            0.06391600519418716,
            0.024021312594413757,
            0.039190419018268585,
            0.04801182448863983
          ],
          [
            0.03741082921624184,
            0.06700371205806732,
            -0.006980242673307657,
            -0.041943538933992386,
            -0.018612617626786232,
            -0.012407303787767887,
            -0.03239251300692558,
            -0.04937220737338066,
            -0.045563455671072006,
            -0.05655946210026741,
            -0.013394998386502266,
            -0.041402846574783325,
            -0.014244023710489273,
            0.01617518439888954,
            0.05569371581077576,
            -0.03705630078911781
          ]
        ],
        "net.1.linear.bias": [
          -0.19885358214378357,
          0.1891563981771469,
          -0.12495049089193344,
          0.0739273652434349,
          -0.1306249499320984,
          0.0872972384095192,
          0.20922137796878815,
          0.11283569782972336,
          -0.27756914496421814,
          0.03657130151987076,
          0.31436866521835327,
          0.0004923418164253235,
          0.23619689047336578,
          0.25495755672454834,
          -0.027390005066990852,
          0.07739041745662689
        ],
        "net.2.weight": [
          [
            -0.13461481034755707,
            -0.04465516656637192,
            -0.16078923642635345,
            0.10325918346643448,
            -0.1912803202867508,
            0.16304633021354675,
            0.14474469423294067,
            0.0034857967402786016,
            0.02332514524459839,
            0.007804167922586203,
            -0.022857744246721268,
            0.009076694957911968,
            -0.01934180222451687,
            -0.016907351091504097,
            -0.03320213407278061,
            0.16135969758033752
          ]
        ],
        "net.2.bias": [
          -0.05754968151450157
        ]
      },
      "final_mse": 4.382072438602336e-05,
      "final_pearson": 0.9977349638938904,
      "phi_atr_min": 0.0020725,
      "phi_atr_max": 64.54536492569844
    },
    {
      "config": {
        "span": 2000,
        "atr_period": 500,
        "hidden_features": 16,
        "hidden_layers": 1,
        "omega_0": 10.0,
        "lr": 0.005,
        "epochs": 2000,
        "alpha": 1.0,
        "beta": 0.5
      },
      "state_dict": {
        "net.0.linear.weight": [
          [
            1.0172979831695557
          ],
          [
            0.14607292413711548
          ],
          [
            -0.30081188678741455
          ],
          [
            0.7011704444885254
          ],
          [
            0.2094510942697525
          ],
          [
            0.8964619636535645
          ],
          [
            0.13447289168834686
          ],
          [
            -0.29345592856407166
          ],
          [
            0.2381398230791092
          ],
          [
            -0.25601768493652344
          ],
          [
            0.41101720929145813
          ],
          [
            0.9390723705291748
          ],
          [
            0.5844302177429199
          ],
          [
            -0.5340437889099121
          ],
          [
            0.7127387523651123
          ],
          [
            0.1944202333688736
          ]
        ],
        "net.0.linear.bias": [
          0.9365520477294922,
          0.07219719886779785,
          -0.4704657793045044,
          0.23427698016166687,
          -0.4366719424724579,
          -0.08493247628211975,
          -0.41106927394866943,
          0.699971616268158,
          -0.8341684937477112,
          -0.45150241255760193,
          -0.3445451557636261,
          -0.6915149092674255,
          0.07605375349521637,
          -1.0098463296890259,
          0.8888471126556396,
          -0.8677289485931396
        ],
        "net.1.linear.weight": [
          [
            -0.09122318029403687,
            -0.02295505627989769,
            0.07249492406845093,
            0.0034063602797687054,
            -0.016006510704755783,
            0.009983673691749573,
            -0.02591065689921379,
            -0.0036981303710490465,
            -0.047218527644872665,
            0.006389339920133352,
            0.03154532611370087,
            0.00697655975818634,
            -0.02070714719593525,
            -0.041803911328315735,
            0.001323296339251101,
            -0.03534556180238724
          ],
          [
            -0.0006481970776803792,
            0.04463504999876022,
            -0.049149040132761,
            -0.01935727708041668,
            0.028689676895737648,
            0.029125453904271126,
            -0.0347621776163578,
            -0.06146762892603874,
            -0.037981078028678894,
            -0.05202764272689819,
            0.06342145800590515,
            -0.0030449621845036745,
            -0.00362769584171474,
            0.005164314992725849,
            0.016360348090529442,
            -0.0049803792499005795
          ],
          [
            0.010732061229646206,
            -0.009528637863695621,
            -0.052444618195295334,
            -0.030264904722571373,
            -0.02008700743317604,
            0.03319130465388298,
            -0.07857276499271393,
            0.06472595036029816,
            0.002133481903001666,
            -0.03649557754397392,
            -0.04032241180539131,
            -0.03156436234712601,
            0.04439244046807289,
            0.02786375768482685,
            -0.010080878622829914,
            0.001248985412530601
          ],
          [
            -0.05631350353360176,
            0.015357952564954758,
            0.005496470723301172,
            0.08062878251075745,
            -0.05776530131697655,
            -0.003848905907943845,
            -0.06487765908241272,
            -0.09152297675609589,
            0.01750512234866619,
            0.009244159795343876,
            0.0578327551484108,
            -0.00046652829041704535,
            -0.05225427448749542,
            -0.07470998913049698,
            0.039787255227565765,
            0.02745000272989273
          ],
          [
            0.0058930558152496815,
            0.060267772525548935,
            -0.0345102995634079,
            -0.045541439205408096,
            0.029035065323114395,
            -0.011349737644195557,
            -0.003130037570372224,
            -0.03860621154308319,
            0.011455195024609566,
            0.0460902638733387,
            -0.02463352680206299,
            -0.006944017019122839,
            -0.06753180176019669,
            0.034192077815532684,
            -0.008050997741520405,
            -0.026332933455705643
          ],
          [
            -0.028383921831846237,
            0.04032992944121361,
            -0.024899382144212723,
            0.0016066053649410605,
            -0.005690774414688349,
            -0.014337919652462006,
            -0.06270846724510193,
            -0.0375010222196579,
            0.00409284420311451,
            -0.0003276111092418432,
            0.016359813511371613,
            -0.010553132742643356,
            0.1069243997335434,
            -0.001438600244000554,
            0.057893168181180954,
            -0.027411455288529396
          ],
          [
            0.004324409645050764,
            -0.003864494850859046,
            -0.04253401979804039,
            -0.026101145893335342,
            -0.03393128141760826,
            -0.041056931018829346,
            -0.07470840215682983,
            0.055102329701185226,
            0.07502178102731705,
            0.006602414418011904,
            0.012804673053324223,
            0.005494622979313135,
            -0.017563821747899055,
            0.01235409639775753,
            0.026933277025818825,
            0.0165964737534523
          ],
          [
            0.3770736753940582,
            0.0028411292005330324,
            -0.08138412237167358,
            -0.20815332233905792,
            -0.05945838242769241,
            0.33289358019828796,
            -0.04662163555622101,
            -0.015895826742053032,
            0.034859396517276764,
            0.005356318317353725,
            -0.0047221556305885315,
            0.18155856430530548,
            0.14452926814556122,
            0.04786189645528793,
            -0.30037039518356323,
            0.05804138258099556
          ],
          [
            0.1444215178489685,
            -0.03374924510717392,
            0.057498060166835785,
            -0.08590204268693924,
            0.0009167009266093373,
            -0.09281589835882187,
            0.07690462470054626,
            0.027541369199752808,
            -0.05278318002820015,
            0.10196477174758911,
            -0.01080868486315012,
            -0.14592190086841583,
            -0.013602052815258503,
            0.054127708077430725,
            0.01140692550688982,
            -0.0391835942864418
          ],
          [
            0.03187587484717369,
            -0.03036467544734478,
            -0.03381644934415817,
            -0.012924033217132092,
            0.08004347234964371,
            0.0032432093285024166,
            0.06802022457122803,
            0.03267894685268402,
            0.02880256064236164,
            0.006784726865589619,
            -0.06116433069109917,
            0.08108186721801758,
            -0.028651166707277298,
            -0.021479157730937004,
            -0.007836288772523403,
            -0.03251969441771507
          ],
          [
            -0.003537683980539441,
            0.0034624941181391478,
            -0.0380680076777935,
            0.026132410392165184,
            0.0005563594168052077,
            0.023775765672326088,
            0.07504461705684662,
            0.012066984549164772,
            0.06569632142782211,
            0.04060522839426994,
            0.060826994478702545,
            -0.003289291402325034,
            0.02478078007698059,
            -0.03053402155637741,
            0.01478989701718092,
            -0.01948593370616436
          ],
          [
            0.29633262753486633,
            0.16899804770946503,
            -0.032277509570121765,
            -0.11804009228944778,
            -0.000847243529278785,
            -0.12684153020381927,
            0.06022169813513756,
            -0.06241968274116516,
            -0.034317512065172195,
            0.042689088732004166,
            -0.14912089705467224,
            -0.287865549325943,
            -0.15746109187602997,
            0.013968955725431442,
            -0.1099320575594902,
            -0.13718362152576447
          ],
          [
            0.021930595859885216,
            -0.015158317051827908,
            0.010794254951179028,
            -0.1003141850233078,
            0.10266361385583878,
            0.002787247532978654,
            0.07972075045108795,
            0.05847709998488426,
            -0.04743479937314987,
            0.08063430339097977,
            -0.022318603470921516,
            0.11013335734605789,
            0.1096438392996788,
            0.022151194512844086,
            -0.03525226563215256,
            -0.024421563372015953
          ],
          [
            -0.16008464992046356,
            0.02221088297665119,
            -0.012742193415760994,
            0.2299475222826004,
            0.02319205366075039,
            0.05803569033741951,
            0.09483452886343002,
            -0.04659658297896385,
            -0.10175692290067673,
            0.036121249198913574,
            -0.05070007964968681,
            0.21301446855068207,
            -0.15214912593364716,
            -0.12951435148715973,
            0.18127572536468506,
            0.00661042146384716
          ],
          [
            -0.018595831468701363,
            0.012255201116204262,
            0.060784999281167984,
            0.0956127792596817,
            0.05036411061882973,
            -0.04395046457648277,
            0.014601622708141804,
            0.0590175986289978,
            -0.0225641131401062,
            0.05090504139661789,
            0.01593862660229206,
            -0.12645485997200012,
            -0.028814975172281265,
            -0.021487999707460403,
            0.060342900454998016,
            0.05445722118020058
          ],
          [
            0.06465937197208405,
            0.04924364015460014,
            -0.052327919751405716,
            0.018388837575912476,
            -0.06731834262609482,
            -0.07860999554395676,
            -0.07813334465026855,
            -0.0549841970205307,
            -0.005670186597853899,
            -0.1080019474029541,
            0.023699501529335976,
            -0.1573389172554016,
            -0.13258099555969238,
            -0.038068339228630066,
            0.09912987798452377,
            -0.01690387725830078
          ]
        ],
        "net.1.linear.bias": [
          -0.2229827493429184,
          0.25327858328819275,
          -0.14454048871994019,
          0.04929197207093239,
          -0.10744000971317291,
          0.04142122343182564,
          0.19925512373447418,
          0.10374617576599121,
          -0.23805519938468933,
          0.10215426236391068,
          0.29466351866722107,
          0.1356470286846161,
          0.18215014040470123,
          0.21654248237609863,
          -0.03284143656492233,
          0.07787749916315079
        ],
        "net.2.weight": [
          [
            -0.02527390420436859,
            0.0002648160152602941,
            -0.03863641619682312,
            0.015472794882953167,
            -0.046679917722940445,
            0.040846556425094604,
            0.019443919882178307,
            0.002600550651550293,
            0.02966689132153988,
            -0.0029670523945242167,
            -0.00868416577577591,
            -0.004201048985123634,
            0.0024621046613901854,
            0.007319963071495295,
            -0.025707107037305832,
            0.017788155004382133
          ]
        ],
        "net.2.bias": [
          -0.07463733106851578
        ]
      },
      "final_mse": 7.415363506879658e-05,
      "final_pearson": 0.9897974729537964,
      "phi_atr_min": 0.0022848000000000005,
      "phi_atr_max": 65.18896986727123
    },
    {
      "config": {
        "span": 500,
        "atr_period": 125,
        "hidden_features": 16,
        "hidden_layers": 1,
        "omega_0": 30.0,
        "lr": 0.005,
        "epochs": 1500,
        "alpha": 1.0,
        "beta": 1.0
      },
      "state_dict": {
        "net.0.linear.weight": [
          [
            0.8435774445533752
          ],
          [
            0.1606961041688919
          ],
          [
            -0.33509695529937744
          ],
          [
            0.6835213899612427
          ],
          [
            0.15343257784843445
          ],
          [
            0.7830663323402405
          ],
          [
            0.11517094820737839
          ],
          [
            -0.3415907323360443
          ],
          [
            0.26270702481269836
          ],
          [
            -0.2829163670539856
          ],
          [
            0.4277872145175934
          ],
          [
            0.9134901165962219
          ],
          [
            0.5955742597579956
          ],
          [
            -0.4566381871700287
          ],
          [
            0.5865350961685181
          ],
          [
            0.2046661674976349
          ]
        ],
        "net.0.linear.bias": [
          0.740933895111084,
          0.12715552747249603,
          -0.47417309880256653,
          0.27538782358169556,
          -0.45677444338798523,
          -0.12986645102500916,
          -0.42033568024635315,
          0.6460034847259521,
          -0.8412216305732727,
          -0.4606340527534485,
          -0.2767806351184845,
          -0.6052243709564209,
          0.10272079706192017,
          -1.0043978691101074,
          0.8933255672454834,
          -0.8393778204917908
        ],
        "net.1.linear.weight": [
          [
            -0.041766829788684845,
            -0.039976414293050766,
            0.004302421119064093,
            -0.02160889469087124,
            -0.022823121398687363,
            -0.0006866247276775539,
            -0.0026279110461473465,
            0.016128340736031532,
            -0.012357682920992374,
            0.0325176939368248,
            -0.008259694091975689,
            -0.02196771278977394,
            0.01316947303712368,
            -0.02551749348640442,
            0.03656617924571037,
            0.02351924404501915
          ],
          [
            -0.012212296947836876,
            -0.07783111184835434,
            -0.055905647575855255,
            0.01472671702504158,
            -0.06188472360372543,
            0.010494333691895008,
            -0.03664283826947212,
            -0.014746459200978279,
            0.03578144684433937,
            -0.047109294682741165,
            -0.018635546788573265,
            0.02522370032966137,
            -0.02682512067258358,
            -0.04326841980218887,
            0.02875860407948494,
            0.06331977248191833
          ],
          [
            0.0529479943215847,
            -0.004607367794960737,
            -0.003048278857022524,
            -0.02087036333978176,
            -0.01118253543972969,
            0.019541028887033463,
            -0.018814224749803543,
            0.012120399624109268,
            0.02792532928287983,
            -0.005883793346583843,
            -0.030237117782235146,
            0.024227026849985123,
            0.029835019260644913,
            0.02173157036304474,
            0.007360371295362711,
            0.002367874374613166
          ],
          [
            0.017447324469685555,
            -0.004436396528035402,
            0.012443361803889275,
            0.008814956992864609,
            0.010222349315881729,
            -0.0034214509651064873,
            -0.00018747437570709735,
            0.004427890758961439,
            -0.00774329574778676,
            0.019200269132852554,
            0.023296331986784935,
            -0.02581467479467392,
            0.009801069274544716,
            -0.016701875254511833,
            0.010155835188925266,
            0.0248162392526865
          ],
          [
            -0.019275479018688202,
            0.05120827630162239,
            -0.005041453987360001,
            -0.05204204469919205,
            0.034434974193573,
            -0.0037386626936495304,
            0.0188126377761364,
            -0.023787086829543114,
            0.027994874864816666,
            -0.018072640523314476,
            0.044355347752571106,
            -0.018747687339782715,
            -0.037003640085458755,
            -0.03083142824470997,
            0.047455281019210815,
            -0.024309594184160233
          ],
          [
            0.07507357001304626,
            0.023567993193864822,
            -0.014365012757480145,
            0.008455906063318253,
            0.005961241666227579,
            -0.00553543446585536,
            -0.03422503173351288,
            -0.02169974520802498,
            -0.017738811671733856,
            -0.0168245118111372,
            0.06764987856149673,
            -0.08667958527803421,
            0.015397528186440468,
            -0.03073200024664402,
            0.07016429305076599,
            -0.007973674684762955
          ],
          [
            -0.07451853156089783,
            -0.0015365582657977939,
            0.05586259812116623,
            -0.04733327776193619,
            -0.025280101224780083,
            0.013921053148806095,
            -0.028119171038269997,
            -0.03757563605904579,
            0.056050315499305725,
            -0.01386821735650301,
            0.0830136314034462,
            -0.050605617463588715,
            -0.057885389775037766,
            0.0030933336820453405,
            0.010061817243695259,
            0.006877710111439228
          ],
          [
            -0.18819056451320648,
            -0.038414936512708664,
            0.006119208876043558,
            0.005987769924104214,
            -0.03556571900844574,
            0.13625501096248627,
            -0.006735659204423428,
            0.024129919707775116,
            0.0002390534500591457,
            0.06310877203941345,
            -0.005184020381420851,
            0.14961199462413788,
            0.03183351457118988,
            -0.04355224594473839,
            -0.00754868658259511,
            0.07101394236087799
          ],
          [
            -0.14623835682868958,
            -0.002667865715920925,
            -0.03605080768465996,
            -0.008404817432165146,
            -0.024435484781861305,
            0.0620601661503315,
            -0.02260703034698963,
            0.06269563734531403,
            -0.04652344435453415,
            0.0368259958922863,
            -0.10405328124761581,
            -0.0015159001341089606,
            0.007697588764131069,
            0.055127717554569244,
            -0.02041001431643963,
            -0.030968867242336273
          ],
          [
            0.00863303430378437,
            -0.04802968353033066,
            -0.030089886859059334,
            -0.06144507974386215,
            -0.005630066152662039,
            0.13873232901096344,
            0.01065088901668787,
            0.025863762944936752,
            -0.00389864225871861,
            0.009888201020658016,
            -0.04499753937125206,
            0.05426938086748123,
            -0.0561845488846302,
            -0.020796848461031914,
            -0.06016746535897255,
            0.030439220368862152
          ],
          [
            -0.1762174516916275,
            0.005610872991383076,
            -0.032109878957271576,
            0.19315636157989502,
            0.014264940284192562,
            -0.0002788095735013485,
            0.027031980454921722,
            0.00452216062694788,
            -0.023678353056311607,
            0.020783133804798126,
            0.049277935177087784,
            0.07065527886152267,
            0.11252514272928238,
            -0.05224601551890373,
            0.0308102834969759,
            -0.025847334414720535
          ],
          [
            0.09036058187484741,
            0.05755754932761192,
            -0.010564539581537247,
            -0.061149224638938904,
            0.005951970349997282,
            0.09077100455760956,
            -0.031519047915935516,
            -0.03235176205635071,
            0.02428465150296688,
            -0.05290617048740387,
            0.002444487065076828,
            -0.13952551782131195,
            0.05062977969646454,
            -0.0676560178399086,
            -0.12446390092372894,
            -0.04172518476843834
          ],
          [
            -0.15275539457798004,
            -0.03713038191199303,
            -0.015402604825794697,
            -0.006765440106391907,
            0.006145885214209557,
            -0.13122327625751495,
            0.02866894192993641,
            0.016256943345069885,
            -0.0034726194571703672,
            0.004795249551534653,
            -0.05519719421863556,
            -0.038516316562891006,
            -0.0004810038662981242,
            0.04319494590163231,
            0.008801592513918877,
            0.02251495234668255
          ],
          [
            0.09599164873361588,
            0.03151482343673706,
            0.004428127780556679,
            -0.03630669042468071,
            0.005604681558907032,
            0.0510992668569088,
            0.0006638882332481444,
            0.002178595867007971,
            0.007737533189356327,
            -0.0048167710192501545,
            -0.011410823091864586,
            0.016304222866892815,
            -0.07962515950202942,
            0.007807714864611626,
            -0.045024726539850235,
            0.00966495182365179
          ],
          [
            0.016954367980360985,
            -0.008668397553265095,
            -0.010372338816523552,
            0.007928047329187393,
            0.012161871418356895,
            -0.006197377108037472,
            -0.01583723910152912,
            0.03664685785770416,
            -0.005942796356976032,
            0.016780627891421318,
            0.022330638021230698,
            -0.03406858444213867,
            0.019984710961580276,
            -0.008546335622668266,
            0.03274005651473999,
            -0.007109567988663912
          ],
          [
            0.00262099108658731,
            0.0022021131590008736,
            -0.029218368232250214,
            -0.002145575126633048,
            -0.022134948521852493,
            -0.07677116990089417,
            -0.004693672526627779,
            0.007690149825066328,
            -0.014619787223637104,
            -0.024028893560171127,
            -0.0228053480386734,
            -0.019635839387774467,
            -0.017599504441022873,
            -0.013448650948703289,
            0.02616254985332489,
            -0.008625986985862255
          ]
        ],
        "net.1.linear.bias": [
          -0.22483514249324799,
          0.15341030061244965,
          -0.12434762716293335,
          0.06963381171226501,
          -0.04341903328895569,
          0.0031689400784671307,
          0.2924363911151886,
          0.09632499516010284,
          -0.25366008281707764,
          0.08401688933372498,
          0.21988701820373535,
          0.0897110104560852,
          0.2110893726348877,
          0.2431926429271698,
          -0.06761348247528076,
          0.04729389771819115
        ],
        "net.2.weight": [
          [
            -0.008120585232973099,
            -0.007663948927074671,
            -0.01327879261225462,
            0.008421062491834164,
            -0.012296675704419613,
            -0.00863562896847725,
            0.005498011130839586,
            -0.002973355818539858,
            0.004296991974115372,
            -0.006050437223166227,
            -0.0021400463301688433,
            -0.004675987642258406,
            -0.006861465517431498,
            -0.010752503760159016,
            -0.005487451795488596,
            0.012394601479172707
          ]
        ],
        "net.2.bias": [
          0.002751789055764675
        ]
      },
      "final_mse": 4.040432031615637e-05,
      "final_pearson": 0.9786494374275208,
      "phi_atr_min": 0.0025183999999999875,
      "phi_atr_max": 65.34433332559007
    },
    {
      "config": {
        "span": 125,
        "atr_period": 30,
        "hidden_features": 32,
        "hidden_layers": 2,
        "omega_0": 30.0,
        "lr": 0.002,
        "epochs": 1500,
        "alpha": 1.0,
        "beta": 1.0
      },
      "state_dict": {
        "net.0.linear.weight": [
          [
            0.30522090196609497
          ],
          [
            -0.18971769511699677
          ],
          [
            0.8329511880874634
          ],
          [
            -0.6010257005691528
          ],
          [
            -0.5939242243766785
          ],
          [
            -0.610929548740387
          ],
          [
            0.9025871753692627
          ],
          [
            0.33909687399864197
          ],
          [
            0.9544248580932617
          ],
          [
            -0.8281099200248718
          ],
          [
            -0.9943373799324036
          ],
          [
            -0.7917762398719788
          ],
          [
            -0.6803807020187378
          ],
          [
            0.4144928753376007
          ],
          [
            0.35959455370903015
          ],
          [
            0.8416321873664856
          ],
          [
            -0.5091279745101929
          ],
          [
            -0.6922274231910706
          ],
          [
            0.5255157947540283
          ],
          [
            -0.3915311396121979
          ],
          [
            0.6097419857978821
          ],
          [
            -0.2285558134317398
          ],
          [
            0.5763316750526428
          ],
          [
            -0.7723799347877502
          ],
          [
            -0.5053720474243164
          ],
          [
            0.31636300683021545
          ],
          [
            0.19808252155780792
          ],
          [
            -0.2586354613304138
          ],
          [
            0.6050136685371399
          ],
          [
            0.6815935373306274
          ],
          [
            -0.7323228716850281
          ],
          [
            -0.5271833539009094
          ]
        ],
        "net.0.linear.bias": [
          0.7760227918624878,
          0.1657697856426239,
          -0.3316976726055145,
          0.6080431938171387,
          0.15398897230625153,
          0.8019772171974182,
          0.11146300286054611,
          -0.3111910820007324,
          0.2604883909225464,
          -0.2712627649307251,
          0.42228567600250244,
          0.8810431361198425,
          0.5757676959037781,
          -0.4264416992664337,
          0.5810695290565491,
          0.17983712255954742,
          0.5110874176025391,
          -0.6166030764579773,
          -0.987339973449707,
          -0.37355828285217285,
          -0.7671810984611511,
          0.8172280192375183,
          0.2930736243724823,
          0.4269218444824219,
          0.318925678730011,
          -0.008987784385681152,
          0.7794215083122253,
          -0.7140241265296936,
          0.0725937932729721,
          -0.6878994703292847,
          0.3041014075279236,
          -0.34504616260528564
        ],
        "net.1.linear.weight": [
          [
            0.00350219220854342,
            0.003864065045490861,
            -0.008252173662185669,
            0.003416497027501464,
            0.0213285144418478,
            0.012793708592653275,
            0.027982281520962715,
            0.007979786023497581,
            0.008007473312318325,
            0.011942286975681782,
            0.07791406661272049,
            0.021270468831062317,
            0.006527097895741463,
            0.01229773834347725,
            -0.0071042184717953205,
            0.002959898905828595,
            -0.011471002362668514,
            0.011762392707169056,
            0.0032683080062270164,
            -0.00631169555708766,
            -0.010999591089785099,
            -0.002953097689896822,
            0.010614425875246525,
            0.024145768955349922,
            0.007538295350968838,
            0.00887153297662735,
            0.00878741405904293,
            0.00046210954315029085,
            -0.006089690141379833,
            0.02942373789846897,
            -0.049073800444602966,
            -0.011206736788153648
          ],
          [
            0.0022916183806955814,
            -0.0026278900913894176,
            0.020503170788288116,
            -0.00397338205948472,
            0.017998579889535904,
            0.01483199279755354,
            0.003918283153325319,
            0.015189452096819878,
            0.05333608016371727,
            -0.01672017201781273,
            -0.03823618218302727,
            -0.014020046219229698,
            0.0045663765631616116,
            -0.004869483411312103,
            -0.010557235218584538,
            -0.025766532868146896,
            0.001495322328992188,
            -0.0023733810521662235,
            -0.010880586691200733,
            0.01816978119313717,
            -0.017319705337285995,
            -0.004110395442694426,
            -0.008145724423229694,
            0.015479917638003826,
            0.021105298772454262,
            -0.0064770071767270565,
            0.012044332921504974,
            -0.010306333191692829,
            -0.005751132499426603,
            0.023798784241080284,
            -0.01589759811758995,
            0.01686885766685009
          ],
          [
            0.012357113882899284,
            -7.097698107827455e-05,
            0.017513802275061607,
            0.005266320426017046,
            -0.017280029132962227,
            0.002951987786218524,
            0.004026130307465792,
            -0.005049295257776976,
            0.00496671674773097,
            -0.03578639030456543,
            0.016420617699623108,
            0.02886320650577545,
            0.014750873669981956,
            0.008549601770937443,
            -0.011301540769636631,
            -0.017402388155460358,
            -0.012812213972210884,
            0.003734626341611147,
            -0.004009179770946503,
            -0.00487377168610692,
            0.00552078103646636,
            0.00038842431968078017,
            0.01418161578476429,
            0.04469028115272522,
            -0.010894629172980785,
            -0.008191455155611038,
            0.0048737251199781895,
            0.003346044570207596,
            0.017733294516801834,
            0.016442343592643738,
            -0.038592275232076645,
            -0.02349579706788063
          ],
          [
            -0.021102838218212128,
            -0.007701435126364231,
            -0.014691121876239777,
            -0.027420544996857643,
            -0.006263427902013063,
            -0.007934187538921833,
            -0.03900997340679169,
            0.009466012008488178,
            -0.05102110654115677,
            -0.001977823209017515,
            0.011907403357326984,
            0.005389864556491375,
            0.017015991732478142,
            0.018702751025557518,
            -0.01762952096760273,
            -0.004019617103040218,
            0.016726646572351456,
            0.0028101373463869095,
            0.001953741302713752,
            0.014694614335894585,
            -0.0072549073956906796,
            -0.013953184708952904,
            -0.0034444148186594248,
            0.005494947079569101,
            -0.0016485322266817093,
            0.0045649041421711445,
            -0.02177555300295353,
            -0.009779075160622597,
            0.007770616095513105,
            0.01874736323952675,
            -0.011025017127394676,
            0.00926878210157156
          ],
          [
            -0.02370307222008705,
            -0.0015996122965589166,
            -0.015692560002207756,
            -0.005104851443320513,
            -0.015450502745807171,
            0.007200836669653654,
            0.02712290547788143,
            -0.023025497794151306,
            0.001850964967161417,
            0.018029499799013138,
            0.03391976282000542,
            0.0074385651387274265,
            0.012903585098683834,
            0.0003106609219685197,
            0.011716707609593868,
            0.024381058290600777,
            -0.02467273361980915,
            -0.011209065094590187,
            -0.0016670871991664171,
            -0.010544311255216599,
            0.00023840463836677372,
            0.004489318002015352,
            0.007094936445355415,
            -0.000906969653442502,
            -0.018908284604549408,
            0.01147871557623148,
            0.009999556466937065,
            -0.02444317378103733,
            0.0054886555299162865,
            0.0021676484029740095,
            0.0025837691500782967,
            0.0057915435172617435
          ],
          [
            -0.019342273473739624,
            -0.002980869496241212,
            -0.0026686261408030987,
            -0.012675810605287552,
            -0.014118898659944534,
            -0.007876290939748287,
            -0.029737424105405807,
            -0.01629757322371006,
            -0.00531977042555809,
            -0.008142719976603985,
            -0.002544016344472766,
            0.035866137593984604,
            -0.013215496204793453,
            0.0038871909491717815,
            -0.0037378366105258465,
            0.01760382577776909,
            -0.022124482318758965,
            0.010892526246607304,
            9.943592885974795e-05,
            -0.014817371964454651,
            0.015593290328979492,
            0.013799319043755531,
            -0.0008910272736102343,
            0.004904089029878378,
            -0.0055158003233373165,
            -0.003197014331817627,
            0.010977927595376968,
            -0.01940816454589367,
            0.006099700927734375,
            -0.007288857828825712,
            -0.005522145889699459,
            0.005147973541170359
          ],
          [
            0.0003261899983044714,
            -0.009191364049911499,
            -0.014064475893974304,
            0.011577842757105827,
            -0.018921582028269768,
            0.00033046960015781224,
            -0.019367584958672523,
            -0.010324898175895214,
            -0.01287590991705656,
            0.00986039824783802,
            -0.021689260378479958,
            -0.006187169812619686,
            -0.018825722858309746,
            0.020490555092692375,
            0.005109147634357214,
            0.005006540101021528,
            -0.021173950284719467,
            0.005392406601458788,
            -0.01866852678358555,
            -0.007456957828253508,
            0.015254493802785873,
            -0.012967722490429878,
            0.0013093536254018545,
            -0.01823378913104534,
            -0.0002913787611760199,
            0.013327503576874733,
            -0.004618619102984667,
            0.011832312680780888,
            0.006104236003011465,
            -0.021737877279520035,
            0.02104116417467594,
            -0.004920042119920254
          ],
          [
            0.013636697083711624,
            0.00973531510680914,
            0.031133152544498444,
            0.00022506399545818567,
            0.013515064492821693,
            -0.018711933866143227,
            0.029074372723698616,
            -0.006167526822537184,
            0.04444040730595589,
            0.01310835499316454,
            -0.045980874449014664,
            -0.02405443601310253,
            0.009634029120206833,
            -0.016023490577936172,
            -0.004280002787709236,
            -0.011292412877082825,
            0.017136499285697937,
            -0.02902580238878727,
            0.011178702116012573,
            0.003607903840020299,
            -0.004823306109756231,
            0.012198461219668388,
            -0.014677842147648335,
            -0.009886965155601501,
            -0.0008726825471967459,
            -0.015233275480568409,
            0.0032928716391324997,
            -0.008650489151477814,
            -0.01383069809526205,
            0.0007603939156979322,
            -0.004267681390047073,
            0.003817496122792363
          ],
          [
            -0.002479346003383398,
            -0.013737466186285019,
            0.004430003464221954,
            0.0006400674465112388,
            -0.023210205137729645,
            -0.01615551859140396,
            -0.06760500371456146,
            0.00794719997793436,
            -0.030157335102558136,
            -0.03236687183380127,
            -0.050732482224702835,
            0.008986205793917179,
            -0.004006038885563612,
            0.013216374441981316,
            -0.018509933724999428,
            -0.02524208277463913,
            0.005280910991132259,
            -0.0322357639670372,
            -0.006671317853033543,
            0.006412371061742306,
            0.0076562631875276566,
            -0.01376952975988388,
            0.025665391236543655,
            0.020542751997709274,
            0.010929595679044724,
            0.0010216415394097567,
            -0.021765274927020073,
            0.00992867536842823,
            0.02428232878446579,
            0.0015206319512799382,
            -0.0016288586193695664,
            -0.002569436328485608
          ],
          [
            0.0027764623519033194,
            -0.0018363040871918201,
            -0.011439826339483261,
            -0.021526990458369255,
            -0.02794565074145794,
            -0.027965977787971497,
            -0.006211930885910988,
            0.010793840512633324,
            -0.052561815828084946,
            -0.005573382135480642,
            0.05061659216880798,
            -0.01681060530245304,
            0.008220848627388477,
            0.006697405595332384,
            0.007310930173844099,
            -0.001019585644826293,
            0.0040041799657046795,
            -0.01703127659857273,
            0.016216587275266647,
            -0.003318006405606866,
            -0.00572721753269434,
            0.0004107650020159781,
            0.006802644580602646,
            -0.004915042780339718,
            -0.008649254217743874,
            -0.0015478110872209072,
            0.00447510089725256,
            0.0052279639057815075,
            0.01873692311346531,
            0.009745566174387932,
            0.01094586681574583,
            0.005694975610822439
          ],
          [
            -0.001244421349838376,
            -0.010950078256428242,
            -0.036665886640548706,
            0.014558869414031506,
            -0.0019303979352116585,
            0.010819092392921448,
            -0.010114180855453014,
            -0.02004638873040676,
            -0.007827922701835632,
            0.01680452562868595,
            -0.0249650776386261,
            0.0003463338071014732,
            -0.01569458097219467,
            -0.0003827362961601466,
            0.011555762030184269,
            0.02726547233760357,
            -0.004499848000705242,
            0.024015773087739944,
            -0.013063712976872921,
            -0.011164563708007336,
            0.0036008174065500498,
            -0.02349379099905491,
            -0.002084464067593217,
            -0.03217034041881561,
            -0.015131944790482521,
            0.012899539433419704,
            -0.008283087983727455,
            0.021082507446408272,
            0.020662879571318626,
            -0.012386000715196133,
            0.016084834933280945,
            -0.019325315952301025
          ],
          [
            0.003689542645588517,
            -0.010503069497644901,
            0.03343814238905907,
            -0.011867769062519073,
            -0.027422897517681122,
            -0.024686694145202637,
            -0.02836264856159687,
            0.026117343455553055,
            0.018763475120067596,
            -0.013579308986663818,
            -0.004487288650125265,
            0.011799925938248634,
            -0.011725098825991154,
            0.010185769759118557,
            -0.016025131568312645,
            -0.028030075132846832,
            0.004928575363010168,
            -0.020081324502825737,
            0.023367296904325485,
            0.03359362110495567,
            0.03601189702749252,
            -0.004232526291161776,
            0.02114075794816017,
            0.01342467125505209,
            -0.0010528335114941,
            -0.021762115880846977,
            0.016881722956895828,
            0.009238600730895996,
            0.02473551593720913,
            -0.02323983982205391,
            0.013837503269314766,
            -0.009964357130229473
          ],
          [
            -0.0005500203697010875,
            -0.004568964708596468,
            -0.025956066325306892,
            -0.0242350772023201,
            -0.011498071253299713,
            -0.0031222933903336525,
            0.02209136262536049,
            0.013033277355134487,
            -0.0018792446935549378,
            0.03277748078107834,
            0.020448269322514534,
            -0.008454985916614532,
            -0.010709459893405437,
            -0.020069489255547523,
            0.00764299463480711,
            0.027422253042459488,
            0.01603381149470806,
            0.0015891926595941186,
            0.03228996321558952,
            0.004058886785060167,
            -0.012158485129475594,
            -0.01157519780099392,
            -0.014490678906440735,
            -0.0358436293900013,
            0.0005128330667503178,
            0.011394881643354893,
            0.010363577865064144,
            -0.011180813424289227,
            -0.002318921498954296,
            -0.007761419750750065,
            0.015251399949193,
            0.0357062853872776
          ],
          [
            0.0010708122281357646,
            0.010986105538904667,
            -0.002047962974756956,
            0.0025041557382792234,
            0.013380629941821098,
            0.00307653471827507,
            -0.013203930109739304,
            -0.003350599203258753,
            -0.018422933295369148,
            -0.015222664922475815,
            -0.011696607805788517,
            0.020400123670697212,
            0.006060110405087471,
            0.0039010222535580397,
            -0.012041620910167694,
            -0.0072888596914708614,
            0.006201961077749729,
            0.024371854960918427,
            -0.003406057832762599,
            -0.002087886445224285,
            -0.01235971413552761,
            0.01407176349312067,
            -0.02215515449643135,
            0.027672216296195984,
            0.007361195981502533,
            -0.004052530042827129,
            0.017521042376756668,
            -0.007674329914152622,
            -0.022986067458987236,
            0.008039182052016258,
            -0.033340416848659515,
            0.015047517605125904
          ],
          [
            -0.026980984956026077,
            0.0032521274406462908,
            -0.01777404174208641,
            -0.019001351669430733,
            0.0004498399794101715,
            -0.0027737284544855356,
            0.007746031973510981,
            -0.008172640576958656,
            0.021377038210630417,
            0.011239243671298027,
            -0.016978943720459938,
            0.009289995767176151,
            0.0034801834262907505,
            0.0029461809899657965,
            0.006223731674253941,
            -0.00618376862257719,
            -0.003960030619055033,
            -0.003929304424673319,
            0.023132722824811935,
            -0.008174947462975979,
            -0.02077637054026127,
            -0.006822969764471054,
            0.002248301636427641,
            0.006756829563528299,
            0.010361878201365471,
            -0.004725978244096041,
            0.004794775508344173,
            -0.01695546694099903,
            -0.002585963113233447,
            0.015021842904388905,
            -0.0010098624043166637,
            -0.003790567396208644
          ],
          [
            0.009825318120419979,
            0.000822491361759603,
            -0.00032650839420966804,
            -0.014718323014676571,
            -0.026973415166139603,
            -0.011729647405445576,
            0.005216727964580059,
            0.0045735337771475315,
            0.018504535779356956,
            0.000682632380630821,
            -0.03361670300364494,
            -0.006200238596647978,
            -0.001131000928580761,
            -0.01275491714477539,
            0.0336126983165741,
            -0.021466519683599472,
            -0.00880033802241087,
            -0.02247804030776024,
            0.013767086900770664,
            -0.013495362363755703,
            0.008141578175127506,
            -0.01853439211845398,
            0.01744695007801056,
            -0.00620424747467041,
            -0.012014648877084255,
            0.005527297034859657,
            0.004745966289192438,
            0.013988307677209377,
            0.006521544419229031,
            -0.0006730016903020442,
            0.013700122945010662,
            0.003324249293655157
          ],
          [
            -0.001355668413452804,
            0.006980446632951498,
            -0.015135898254811764,
            0.004606153815984726,
            0.0010213532950729132,
            -0.006078927777707577,
            -0.0022441765759140253,
            0.010654211975634098,
            -0.025921102613210678,
            0.008095791563391685,
            0.054524071514606476,
            0.014153797179460526,
            0.015414606779813766,
            -0.023299293592572212,
            0.016992593184113503,
            0.0008738161996006966,
            -0.0038566286675632,
            -0.003538693767040968,
            0.01221269927918911,
            0.01306446548551321,
            0.002724534599110484,
            0.007108873687684536,
            -0.011802246794104576,
            0.0028075932059437037,
            -0.014006270095705986,
            0.008712646551430225,
            -0.004896398168057203,
            -0.002467587124556303,
            0.010836918838322163,
            0.024232028052210808,
            -0.027025572955608368,
            -0.006797789130359888
          ],
          [
            -0.009791134856641293,
            -0.000561006716452539,
            -0.0003438785206526518,
            -0.004852019716054201,
            -0.008815435692667961,
            0.005135188810527325,
            0.05518588423728943,
            -0.012728625908493996,
            0.014082285575568676,
            0.024825798347592354,
            0.03815862908959389,
            -0.02218146249651909,
            0.01625712402164936,
            0.01948395185172558,
            -0.0020192426163703203,
            0.016627850010991096,
            -0.01255726907402277,
            -0.0019616105128079653,
            0.0045129987411201,
            -0.012934675440192223,
            0.0051938993856310844,
            -0.003817219752818346,
            0.014023357070982456,
            -0.0031816393602639437,
            -0.0021179907489567995,
            0.005267710890620947,
            -0.017551984637975693,
            -0.027415839955210686,
            -0.004635998047888279,
            0.02211102657020092,
            0.0015765299322083592,
            -0.01815950497984886
          ],
          [
            0.008639190346002579,
            -0.011489403434097767,
            -0.006198900286108255,
            0.012619090266525745,
            -0.011408825404942036,
            -0.014427709393203259,
            -0.017916986718773842,
            0.011605501174926758,
            0.0011800687061622739,
            -0.015505092218518257,
            -0.03723330423235893,
            0.025741297751665115,
            -0.018904579803347588,
            0.0017716814763844013,
            -0.011320818215608597,
            0.0003178427286911756,
            -0.002545266645029187,
            0.01669120229780674,
            0.008440764620900154,
            0.017482293769717216,
            0.01791686937212944,
            0.00218450790271163,
            0.03149882331490517,
            0.01366737112402916,
            -0.017769111320376396,
            0.006805159151554108,
            0.003310560015961528,
            0.010489100590348244,
            0.032350804656744,
            -0.028169091790914536,
            0.011851330287754536,
            0.011349288746714592
          ],
          [
            -0.008432813920080662,
            0.0022061816416680813,
            -0.006041144486516714,
            -0.0012607270618900657,
            -0.014732666313648224,
            -0.0032431662548333406,
            0.052223533391952515,
            0.00883435644209385,
            0.045983292162418365,
            0.04278932139277458,
            0.019084950909018517,
            -0.04574437439441681,
            -0.012842918746173382,
            0.006301218643784523,
            0.013215363025665283,
            0.0071771773509681225,
            -0.0005008714506402612,
            -0.03578214719891548,
            -0.019489800557494164,
            -0.006499987095594406,
            0.0129219526425004,
            0.007771127391606569,
            -0.013280626386404037,
            -0.010038340464234352,
            0.007186581380665302,
            -0.003771095769479871,
            0.003387251403182745,
            0.0004049452836625278,
            -0.012188314460217953,
            -0.015600399114191532,
            0.019435640424489975,
            -0.01827932521700859
          ],
          [
            -0.005539185367524624,
            0.0068082259967923164,
            0.008353021927177906,
            -0.010524645447731018,
            -0.005816445220261812,
            -0.011604752391576767,
            0.023583978414535522,
            0.0026554535143077374,
            0.006712924689054489,
            -0.02987784519791603,
            0.04956607520580292,
            0.018901562318205833,
            0.009179053828120232,
            -0.02300342731177807,
            0.006632017903029919,
            -0.016169074922800064,
            0.016315411776304245,
            -0.0015082116005942225,
            0.017823034897446632,
            -0.0021500829607248306,
            -0.007627195678651333,
            0.004581322427839041,
            -0.0003923534241039306,
            0.03383651748299599,
            -0.007076927460730076,
            0.0032843556255102158,
            -0.012596082873642445,
            0.013142443262040615,
            -0.012389389798045158,
            0.01618950627744198,
            -0.022764699533581734,
            0.02187509834766388
          ],
          [
            0.03315599262714386,
            0.015044508501887321,
            -0.01030825637280941,
            -0.004838147200644016,
            0.0010416588047519326,
            0.019816342741250992,
            -0.007790897041559219,
            0.01288415864109993,
            -0.03647269308567047,
            0.0023924747947603464,
            0.013313056901097298,
            -0.0037812646478414536,
            0.0017781247152015567,
            -0.0021850571502000093,
            0.022290023043751717,
            0.009610656648874283,
            -0.010257406160235405,
            0.015785587951540947,
            0.005303860176354647,
            -0.02440125122666359,
            -0.01902003213763237,
            0.013899127021431923,
            0.004927102010697126,
            -0.0057557132095098495,
            0.002310381969437003,
            -0.010329991579055786,
            0.024710198864340782,
            0.01039216946810484,
            0.00226379232481122,
            0.012944920919835567,
            0.005458533763885498,
            0.009726999327540398
          ],
          [
            -0.00602767476812005,
            -0.008573670871555805,
            -0.03875434398651123,
            0.010289899073541164,
            0.011376984417438507,
            -0.006043184082955122,
            0.016208963468670845,
            0.025094494223594666,
            -0.03837333247065544,
            0.032311756163835526,
            0.05498635768890381,
            -0.006936171557754278,
            0.023937566205859184,
            0.018385006114840508,
            -0.011488808318972588,
            0.03759031370282173,
            0.015042788349092007,
            -0.019648689776659012,
            -0.03453828766942024,
            0.016213685274124146,
            -0.014769388362765312,
            0.008799933828413486,
            -0.00544677022844553,
            -0.008244440890848637,
            0.009142463095486164,
            -0.017964301630854607,
            0.0044580004177987576,
            0.005219913087785244,
            0.0016530323773622513,
            0.0069663929753005505,
            0.001380237052217126,
            -0.009865984320640564
          ],
          [
            0.00601480295881629,
            0.008916166611015797,
            0.04491565376520157,
            0.011661616154015064,
            -0.006364952307194471,
            -2.6979683752870187e-05,
            -0.023186756297945976,
            0.00040805843309499323,
            0.0030970394145697355,
            -0.038062259554862976,
            0.014151329174637794,
            -0.0004456420720089227,
            0.024160705506801605,
            0.002423051744699478,
            -0.01817605085670948,
            -0.05007991939783096,
            0.011096550151705742,
            0.0007684534066356719,
            -0.023478172719478607,
            -0.007571499794721603,
            -0.013904654420912266,
            0.012195001356303692,
            -0.014457003213465214,
            0.03136073052883148,
            0.010972175747156143,
            -0.02134450525045395,
            0.0027197536546736956,
            0.005616550799459219,
            -0.002041723346337676,
            0.015489750541746616,
            -0.01281761284917593,
            -0.01479052659124136
          ],
          [
            0.009607337415218353,
            -0.004863312933593988,
            0.0021471118088811636,
            0.0032951615285128355,
            0.012726344168186188,
            0.004861629102379084,
            0.014470471069216728,
            0.009832010604441166,
            0.046440210193395615,
            0.01905701868236065,
            -0.05799521878361702,
            -0.022157737985253334,
            -0.02423032931983471,
            0.004009500611573458,
            -0.019704828038811684,
            -0.007488057017326355,
            0.015268265269696712,
            -0.009139838628470898,
            -0.0001769983791746199,
            0.00847333949059248,
            0.012550124898552895,
            -0.002853643847629428,
            0.0067154038697481155,
            -0.007108729332685471,
            0.008004204370081425,
            -0.001296760281547904,
            -0.006951754912734032,
            0.00812697596848011,
            0.011973002925515175,
            -0.022973431274294853,
            0.0060721407644450665,
            -0.008305971510708332
          ],
          [
            -0.006239095702767372,
            -0.008157807402312756,
            -0.01817796565592289,
            -0.005933930166065693,
            -0.01773848943412304,
            -0.008878528140485287,
            0.0005894956411793828,
            0.005383921787142754,
            0.002158366609364748,
            -0.005521479528397322,
            -0.00909221637994051,
            0.009827128611505032,
            0.004693115595728159,
            -0.008077330887317657,
            -0.019966645166277885,
            0.015059717930853367,
            -0.004046306014060974,
            -0.0032507108990103006,
            0.004524180665612221,
            0.001405287184752524,
            -0.011270125396549702,
            -0.004560423549264669,
            -0.0022614863701164722,
            0.013740337453782558,
            -0.012520087882876396,
            -0.014760641381144524,
            -0.004910534247756004,
            -0.0010203210404142737,
            0.0031977822072803974,
            0.01281620841473341,
            0.00024158092855941504,
            0.004115085117518902
          ],
          [
            0.00713245989754796,
            -0.004920561797916889,
            0.004682046361267567,
            -0.014560248702764511,
            -0.012648409232497215,
            -0.014855376444756985,
            0.02199351228773594,
            0.008289685472846031,
            0.05962943285703659,
            0.001796242082491517,
            -0.026768822222948074,
            -0.030877722427248955,
            -0.008161168545484543,
            -0.010805921629071236,
            0.005246488843113184,
            -0.00719720683991909,
            -0.0002912276249844581,
            -0.026374783366918564,
            0.022884530946612358,
            -0.007973793894052505,
            0.0061441888101398945,
            -0.01290849782526493,
            0.004521926864981651,
            -0.0014207843923941255,
            -0.0065259747207164764,
            0.0026587629690766335,
            0.005600146483629942,
            -0.002128334017470479,
            0.002076562959700823,
            -0.013194145634770393,
            0.006328477058559656,
            -0.0022732075303792953
          ],
          [
            0.0030185794457793236,
            -0.024074282497167587,
            0.008713818155229092,
            0.035856083035469055,
            0.021909696981310844,
            0.02980777993798256,
            -0.0010360684245824814,
            -0.022769641131162643,
            -0.004012030083686113,
            0.0007006165105849504,
            -0.026430245488882065,
            -0.019026940688490868,
            -0.025276580825448036,
            0.004477151203900576,
            0.01933305710554123,
            -0.0006097605219110847,
            -0.0046227737329900265,
            0.007947757840156555,
            -0.031160522252321243,
            -0.007982381619513035,
            0.006921669933944941,
            -0.026128174737095833,
            0.0033597394358366728,
            0.0048870206810534,
            0.017406607046723366,
            0.0055022696033120155,
            -0.02779543586075306,
            -0.010878467001020908,
            0.007001756690442562,
            -0.023016951978206635,
            0.020180704072117805,
            -0.008838710375130177
          ],
          [
            0.006887299939990044,
            5.3124702390050516e-05,
            -0.0037228004075586796,
            0.013036450371146202,
            0.027373038232326508,
            0.0015740824164822698,
            -0.008440970443189144,
            -0.006274817511439323,
            0.021694397553801537,
            0.016981162130832672,
            -0.040917232632637024,
            -0.01735389605164528,
            -0.011960587464272976,
            -0.01035185158252716,
            0.015809493139386177,
            -0.0017817013431340456,
            0.02682311274111271,
            0.0230867937207222,
            0.006372756324708462,
            -0.007012831978499889,
            -0.010079608298838139,
            -0.0031394485849887133,
            -0.028791014105081558,
            -0.016713278368115425,
            -0.0019226615549996495,
            0.01972319930791855,
            -0.003598206676542759,
            -0.0010677888058125973,
            -0.01341741718351841,
            -0.009976930916309357,
            0.02141614817082882,
            0.025283154100179672
          ],
          [
            -0.007388674188405275,
            0.006980235688388348,
            0.0006848768680356443,
            0.0006398928817361593,
            0.019176948815584183,
            0.015776218846440315,
            -0.005798574537038803,
            -0.00649047689512372,
            0.01862505078315735,
            -0.007818424142897129,
            -0.014182702638208866,
            0.0032251516822725534,
            0.003641358111053705,
            0.013587859459221363,
            -0.015604496002197266,
            -0.007737297564744949,
            0.010564501397311687,
            0.007114646025002003,
            -0.007506533060222864,
            -0.007873468101024628,
            0.011574191972613335,
            -0.0011043333215638995,
            -0.004537778440862894,
            -0.006056162528693676,
            0.0033394875936210155,
            0.00233527272939682,
            -0.0061343214474618435,
            0.007413728628307581,
            -0.004083770327270031,
            -0.0022282558493316174,
            0.007404770702123642,
            -0.0026007925625890493
          ],
          [
            0.010993377305567265,
            0.026050535961985588,
            0.019558975473046303,
            0.016155818477272987,
            0.011063985526561737,
            0.01803293265402317,
            -0.008707012981176376,
            0.026769105345010757,
            -0.0021787064615637064,
            -0.014937269501388073,
            0.013447951525449753,
            0.031122760847210884,
            -0.004773648921400309,
            -0.00018221838399767876,
            -0.010315513238310814,
            -0.02500193938612938,
            0.0013935890747234225,
            0.02726191096007824,
            0.004153515212237835,
            0.015463195741176605,
            0.001724623842164874,
            0.025981290265917778,
            0.0028231788892298937,
            0.01320588868111372,
            0.005350066814571619,
            -0.0398392379283905,
            0.02127017080783844,
            -0.0036471402272582054,
            0.021390236914157867,
            -0.015317237004637718,
            0.004143954254686832,
            -0.004556435626000166
          ],
          [
            -0.0018580571049824357,
            0.031009435653686523,
            0.009121567942202091,
            -0.023435525596141815,
            -0.006848654244095087,
            -0.0179834496229887,
            -0.017220795154571533,
            -0.02176845446228981,
            0.009492924436926842,
            -0.017900435253977776,
            -0.020939867943525314,
            0.010684432461857796,
            0.009595565497875214,
            0.019528396427631378,
            -0.01580074056982994,
            -0.013204241171479225,
            -0.011200129985809326,
            -0.0197298564016819,
            0.021913666278123856,
            -0.00256581068970263,
            0.014459657482802868,
            0.012500634416937828,
            -0.007214324548840523,
            0.0030392708722501993,
            -8.936495578382164e-05,
            0.004618162754923105,
            0.020782794803380966,
            -0.01333602424710989,
            -0.00709634879603982,
            -0.008346143178641796,
            0.015778202563524246,
            -0.002167045371606946
          ]
        ],
        "net.1.linear.bias": [
          -0.08171367645263672,
          -0.1568363606929779,
          0.006745689082890749,
          -0.11959224939346313,
          0.13972532749176025,
          -0.17797157168388367,
          0.07290691882371902,
          0.17073924839496613,
          0.0755610540509224,
          0.07737166434526443,
          -0.18310809135437012,
          0.17997467517852783,
          -0.028399646282196045,
          -0.11990705877542496,
          0.18221110105514526,
          -0.0645914301276207,
          0.0027462891303002834,
          0.14675183594226837,
          -0.13419070839881897,
          -0.1208145022392273,
          0.05170296132564545,
          -0.02070978842675686,
          0.049463849514722824,
          -0.14922231435775757,
          0.006937969941645861,
          -0.09173336625099182,
          -0.0878080278635025,
          -0.15967483818531036,
          0.09924741834402084,
          0.034183576703071594,
          -0.15447258949279785,
          0.1696862429380417
        ],
        "net.2.linear.weight": [
          [
            0.0025029280222952366,
            0.05290733650326729,
            -0.0030128618236631155,
            0.02188236266374588,
            0.03006593883037567,
            0.05113184079527855,
            -0.0707361102104187,
            -0.09644026309251785,
            -0.014675784856081009,
            -0.009570760652422905,
            0.036199163645505905,
            -0.015404741279780865,
            0.008405284956097603,
            0.03676281496882439,
            -0.0353158675134182,
            -0.03384622931480408,
            0.002964516868814826,
            -0.009289924055337906,
            0.006710394751280546,
            -0.01858367957174778,
            0.025104623287916183,
            0.001903414144180715,
            0.04461061954498291,
            0.0470927394926548,
            0.009790522046387196,
            -0.0076618194580078125,
            -0.054053694009780884,
            -0.011714250780642033,
            0.008047744631767273,
            0.015584182925522327,
            0.004405196290463209,
            -0.033309150487184525
          ],
          [
            -0.06357389688491821,
            -0.08499552309513092,
            0.05014443024992943,
            0.020117102190852165,
            -0.011540517210960388,
            -0.01288796029984951,
            -0.016548313200473785,
            0.03847701847553253,
            0.01583934761583805,
            0.002536614891141653,
            -0.03793457895517349,
            0.00246484880335629,
            -0.02761198580265045,
            0.03203226998448372,
            -0.02537153661251068,
            0.03348207101225853,
            -0.02040305733680725,
            0.009458751417696476,
            0.017899738624691963,
            0.05827757343649864,
            -0.04862459376454353,
            0.02437254786491394,
            0.012323874048888683,
            -0.04169696569442749,
            0.0461677722632885,
            -0.000773554784245789,
            0.03780025243759155,
            -0.008594965562224388,
            0.0014120778068900108,
            0.013510127551853657,
            0.009189770556986332,
            0.005591449793428183
          ],
          [
            -0.008149041794240475,
            0.0003238188219256699,
            -0.01170498039573431,
            0.009040438570082188,
            -0.0044550602324306965,
            -0.014141564257442951,
            -0.0018232157453894615,
            -0.0431300587952137,
            0.018862372264266014,
            0.01606382429599762,
            -0.0038499124348163605,
            0.006198756862431765,
            -0.02980489656329155,
            0.00670300517231226,
            0.014892962761223316,
            -0.05214370787143707,
            -0.0006498396978713572,
            0.006634113844484091,
            -0.006323105189949274,
            -0.04131900891661644,
            -0.02779483236372471,
            -0.011023067869246006,
            -0.008622192777693272,
            0.00406617159023881,
            0.033012986183166504,
            -0.004354865290224552,
            -0.04727011173963547,
            0.028222907334566116,
            0.011521906591951847,
            0.024868398904800415,
            0.0019150980515405536,
            -0.004690445028245449
          ],
          [
            0.01612180285155773,
            -0.038470566272735596,
            0.05736231058835983,
            -0.004174120724201202,
            0.011013925075531006,
            -0.0035996867809444666,
            0.019206486642360687,
            0.060387369245290756,
            0.04490264132618904,
            0.013140358962118626,
            -0.026044564321637154,
            0.03011343814432621,
            -0.024315785616636276,
            -0.021628014743328094,
            0.00795484147965908,
            -0.006518247537314892,
            0.034466490149497986,
            0.02816358581185341,
            -0.052308373153209686,
            -0.024321645498275757,
            -0.017421780154109,
            0.008665728382766247,
            0.11955292522907257,
            -0.01081044226884842,
            -0.017037758603692055,
            0.010687032714486122,
            -0.010958090424537659,
            0.013560864143073559,
            0.0016564439283683896,
            -0.024061765521764755,
            -0.03655778989195824,
            0.03124123439192772
          ],
          [
            -0.0043318308889865875,
            -0.05342322215437889,
            0.011335823684930801,
            -0.015787852928042412,
            0.043173354119062424,
            -0.007059396710246801,
            0.018873775377869606,
            -0.0322011299431324,
            0.029608560726046562,
            0.024647368118166924,
            0.025052711367607117,
            -0.03814179450273514,
            0.008101476356387138,
            -0.008915250189602375,
            0.019670944660902023,
            -0.00029109095339663327,
            0.009719504974782467,
            0.017928726971149445,
            0.0513145811855793,
            0.008204367011785507,
            0.036792412400245667,
            -0.009215496480464935,
            -0.08293801546096802,
            -0.009915498085319996,
            -0.0205627903342247,
            -0.03801686689257622,
            0.006461346056312323,
            -0.003660786198452115,
            -0.014414310455322266,
            -0.02081192657351494,
            -0.07825756818056107,
            0.01932440511882305
          ],
          [
            0.027890941128134727,
            0.032907743006944656,
            0.0069337706081569195,
            -0.026616279035806656,
            -0.010545646771788597,
            0.0067950161173939705,
            0.02678851969540119,
            -0.0023249145597219467,
            0.0950511172413826,
            -0.010359148494899273,
            0.0062326123006641865,
            -0.10567695647478104,
            -0.0030964617617428303,
            0.019494540989398956,
            0.022227153182029724,
            0.030680786818265915,
            -0.026539213955402374,
            -0.010174266062676907,
            -0.020638903602957726,
            0.04304622858762741,
            0.03456864133477211,
            0.0028659398667514324,
            0.02083049714565277,
            0.02881062589585781,
            -0.06198994070291519,
            -0.018083704635500908,
            -0.009269892238080502,
            -0.052860427647829056,
            0.03197420760989189,
            0.03578593581914902,
            0.006661429535597563,
            -0.05478082224726677
          ],
          [
            -0.005857781041413546,
            -0.03443245217204094,
            -0.006658541038632393,
            0.01596108451485634,
            0.020242832601070404,
            -0.019107947126030922,
            -0.008206095546483994,
            -0.012810633517801762,
            -0.0034993498120456934,
            -0.007520511280745268,
            0.004469973035156727,
            0.014318006113171577,
            0.012400218285620213,
            -0.02618960663676262,
            0.003167769405990839,
            0.021787280216813087,
            0.0160759799182415,
            -0.016412954777479172,
            -0.02545391209423542,
            -0.017436442896723747,
            -0.003861434757709503,
            0.016369707882404327,
            -0.008572655729949474,
            -0.01262211985886097,
            -0.018659349530935287,
            0.005018239375203848,
            0.02254381962120533,
            -0.0228581465780735,
            0.006477136630564928,
            -0.033893927931785583,
            -0.027002165094017982,
            0.0006362390704452991
          ],
          [
            -0.008259149268269539,
            -0.006096468772739172,
            0.0044050090946257114,
            -0.014350938610732555,
            -0.0039651351980865,
            -0.01823258213698864,
            0.021570462733507156,
            0.015169009566307068,
            0.04574810713529587,
            -0.022466443479061127,
            -0.01122338231652975,
            -0.006052405573427677,
            0.002204048912972212,
            0.012963445857167244,
            0.006561242043972015,
            0.006959347985684872,
            0.004292413126677275,
            0.004915646277368069,
            0.02188241295516491,
            0.03997468203306198,
            0.004133337177336216,
            -0.0009145246585831046,
            -0.02404066175222397,
            -0.02361234277486801,
            -0.010016416199505329,
            -0.010341167449951172,
            -0.009056998416781425,
            -0.013609299436211586,
            0.0366603285074234,
            -0.0008928936440497637,
            0.016328569501638412,
            0.01847679167985916
          ],
          [
            0.002543138572946191,
            0.0021366423461586237,
            -0.056373585015535355,
            0.021144671365618706,
            -0.002126958454027772,
            -0.018284795805811882,
            0.00849718227982521,
            -0.0387960821390152,
            -0.03167244419455528,
            0.02683594450354576,
            0.020443441346287727,
            -0.01009609829634428,
            -0.054500762373209,
            -0.010551540181040764,
            -0.02312101051211357,
            0.009850154630839825,
            -0.029234370216727257,
            -0.002662839600816369,
            0.005707604344934225,
            -0.012725046835839748,
            0.0025189712177962065,
            0.0016927137039601803,
            -0.03695066273212433,
            -0.0036786836571991444,
            -0.02983962744474411,
            0.010056744329631329,
            0.007197757251560688,
            0.012071222998201847,
            -0.030316298827528954,
            -0.0066670882515609264,
            -0.005322267767041922,
            0.028000803664326668
          ],
          [
            -0.0014230364467948675,
            0.011796697042882442,
            -0.014396466314792633,
            0.024456728249788284,
            -0.06774794310331345,
            -0.03060816414654255,
            0.022349324077367783,
            0.03070482797920704,
            -0.037763673812150955,
            -0.042500950396060944,
            -0.03736042231321335,
            0.01496864017099142,
            0.06424397975206375,
            0.028553113341331482,
            -0.00658405851572752,
            0.018418412655591965,
            -0.011754115112125874,
            -0.03970807418227196,
            0.02459671162068844,
            -0.09196237474679947,
            0.01251145824790001,
            -0.0034817347768694162,
            0.0312628298997879,
            0.006180931348353624,
            0.01111842505633831,
            0.0007934424211271107,
            -0.012340626679360867,
            -0.02253672666847706,
            -0.00645006587728858,
            -0.005887622945010662,
            0.04169322922825813,
            -0.010842415504157543
          ],
          [
            -0.035435307770967484,
            -0.035601913928985596,
            -0.04839994013309479,
            -0.006257329136133194,
            -0.0241489689797163,
            -0.049287181347608566,
            0.031558290123939514,
            -0.025923484936356544,
            0.04251272976398468,
            -0.012317928485572338,
            0.009503224864602089,
            0.021889599040150642,
            -0.0043023861944675446,
            -0.01980985514819622,
            -0.021709756925702095,
            0.049632392823696136,
            0.019639117643237114,
            0.028119560331106186,
            0.0032507663127034903,
            0.02001887559890747,
            0.010520508512854576,
            -0.030856303870677948,
            -0.051807306706905365,
            0.022722335532307625,
            -0.028750905767083168,
            0.011611915193498135,
            0.04666046425700188,
            -0.018763862550258636,
            0.0021538669243454933,
            -0.02348153479397297,
            0.0029805912636220455,
            0.011667580343782902
          ],
          [
            0.0020648252684623003,
            -0.11717692017555237,
            -0.0021682290825992823,
            -0.006387773435562849,
            0.006719282362610102,
            0.012639178894460201,
            -0.01653607189655304,
            -0.014353939332067966,
            0.0023049029987305403,
            0.028631241992115974,
            0.012408535927534103,
            8.385046385228634e-05,
            0.044104740023612976,
            0.059817131608724594,
            -0.020789735019207,
            -0.0250188410282135,
            0.012024135328829288,
            -0.0381566621363163,
            0.01268188189715147,
            -0.056177325546741486,
            0.008573020808398724,
            0.006427409593015909,
            0.03982663154602051,
            0.0479893796145916,
            0.009500118903815746,
            -0.002629885682836175,
            -0.013574552722275257,
            0.013967233709990978,
            0.015009363181889057,
            0.007844366133213043,
            0.01119163352996111,
            0.011773493140935898
          ],
          [
            -0.002463126787915826,
            -0.027988208457827568,
            -0.0210533756762743,
            -0.012716646306216717,
            -0.014481869526207447,
            0.02899644523859024,
            -0.002359383972361684,
            0.006507196929305792,
            -0.021922897547483444,
            -0.019850797951221466,
            -0.04083992913365364,
            0.007116186898201704,
            -0.03548899292945862,
            -0.0061497995629906654,
            0.02539130486547947,
            0.020316695794463158,
            0.009157302789390087,
            -0.027929946780204773,
            -0.022420983761548996,
            -0.0021917803678661585,
            -0.002434148918837309,
            0.002462998265400529,
            -0.013055499643087387,
            -0.03680996596813202,
            -0.026040328666567802,
            -0.0048202755860984325,
            -0.036334335803985596,
            0.0018317828653380275,
            0.011586862616240978,
            -0.016418443992733955,
            -0.021944712847471237,
            0.016659872606396675
          ],
          [
            0.03270981088280678,
            -0.001599299255758524,
            0.0682724118232727,
            -0.008653420954942703,
            0.056237637996673584,
            0.0015251218574121594,
            -0.006552064325660467,
            -0.05170989781618118,
            0.012418985366821289,
            0.020375492051243782,
            0.06624829769134521,
            0.007877727039158344,
            -0.027976982295513153,
            -0.07483737170696259,
            0.0024091361556202173,
            -0.03221674636006355,
            0.0050706458278000355,
            0.011306418105959892,
            -0.009001034311950207,
            0.005835657473653555,
            -0.01006279420107603,
            -0.0034335481468588114,
            -0.07235497981309891,
            -0.08473066985607147,
            -0.028293916955590248,
            0.009211641736328602,
            -0.023623447865247726,
            0.013376704417169094,
            0.02232375368475914,
            0.0001534305774839595,
            -0.028457896783947945,
            -0.0027227825485169888
          ],
          [
            0.017842929810285568,
            0.0530649870634079,
            -0.01475411094725132,
            0.004928699228912592,
            0.006566268391907215,
            -0.015411331318318844,
            0.02971181645989418,
            0.014665243215858936,
            0.010771569795906544,
            -0.01990809664130211,
            0.04049016535282135,
            0.02973465994000435,
            -0.059134356677532196,
            -0.0010483360383659601,
            0.028410641476511955,
            -0.02648419514298439,
            0.005323246121406555,
            0.008707903325557709,
            -0.04218820482492447,
            0.015204393304884434,
            -0.020843783393502235,
            -0.0001582544791745022,
            0.06347834318876266,
            0.005355469416826963,
            -0.0016378676518797874,
            -0.017753446474671364,
            0.0216062031686306,
            0.012589693069458008,
            -0.00012337636144366115,
            -0.006790046580135822,
            0.0016370437806472182,
            0.07324151694774628
          ],
          [
            0.001414608908817172,
            0.035955943167209625,
            0.12881486117839813,
            -0.004486867226660252,
            -0.01466367393732071,
            0.0028888373635709286,
            0.04803013429045677,
            0.01201403234153986,
            -0.04053186997771263,
            -0.006533701438456774,
            -0.010148679837584496,
            -0.03152810409665108,
            -0.005395967047661543,
            0.012044773437082767,
            -0.0006810863269492984,
            -0.0005212071700952947,
            -0.04936908558011055,
            -0.005103337112814188,
            0.012480134144425392,
            -0.046142127364873886,
            0.022625338286161423,
            -0.01622701995074749,
            0.03632379695773125,
            0.0006089542293921113,
            0.04184921830892563,
            -0.02977466955780983,
            -0.04186147823929787,
            0.03373517468571663,
            0.06834318488836288,
            0.024216502904891968,
            -0.009578846395015717,
            -0.009576923213899136
          ],
          [
            0.041889484971761703,
            0.032934218645095825,
            -0.04669683054089546,
            -0.010582526214420795,
            -0.013264087028801441,
            -0.010793525725603104,
            -0.005098484922200441,
            -0.013690975494682789,
            -0.10009170323610306,
            0.015536232851445675,
            0.00802704319357872,
            0.015741847455501556,
            0.005340056028217077,
            0.004457515198737383,
            0.009192777797579765,
            0.0010310503421351314,
            -0.04090480878949165,
            -0.0006576557061634958,
            0.01665770262479782,
            0.05136781930923462,
            0.03462361544370651,
            -0.01084779854863882,
            0.012184453196823597,
            -0.02686537243425846,
            0.07055599242448807,
            0.016216952353715897,
            -0.005119152832776308,
            -0.013085133396089077,
            -0.048595692962408066,
            0.014887155033648014,
            0.008794247172772884,
            0.02084122970700264
          ],
          [
            -0.00885493028908968,
            -0.022600490599870682,
            -0.019119247794151306,
            -0.05376077815890312,
            -0.024495121091604233,
            -0.01044436264783144,
            -0.019410764798521996,
            0.022731032222509384,
            -9.349405445391312e-05,
            -0.024049855768680573,
            0.008695343509316444,
            0.010529989376664162,
            0.012025468982756138,
            0.013158774934709072,
            -0.0013524520909413695,
            -0.013046177104115486,
            -0.03138286992907524,
            -0.0522356741130352,
            -0.0005215966375544667,
            -0.026972481980919838,
            0.04004092887043953,
            -0.01332791242748499,
            0.03786206245422363,
            0.02376016601920128,
            0.05359695851802826,
            0.005804453976452351,
            -0.0012383799767121673,
            -0.05638977512717247,
            -0.0028836464043706656,
            -0.016519248485565186,
            0.020485827699303627,
            -0.021222151815891266
          ],
          [
            0.04084650054574013,
            0.010275779291987419,
            0.010491348803043365,
            0.018114302307367325,
            -0.035335563123226166,
            -0.012891807593405247,
            -0.014877828769385815,
            0.010983976535499096,
            0.008586625568568707,
            0.001586470054462552,
            -0.01270765345543623,
            -0.011786558665335178,
            -0.01918535679578781,
            -0.008787259459495544,
            -0.006942719221115112,
            -0.0009733295300975442,
            -0.03818371519446373,
            0.010421360842883587,
            -0.01827840693295002,
            0.0008138365228660405,
            0.013293330557644367,
            0.005100778769701719,
            0.040305424481630325,
            0.026074379682540894,
            0.049925971776247025,
            0.011086216196417809,
            0.01402064599096775,
            -0.017044924199581146,
            -0.015321396291255951,
            0.02062269113957882,
            -0.007109764963388443,
            -0.015376690775156021
          ],
          [
            0.0027704164385795593,
            0.020001575350761414,
            -0.020120615139603615,
            0.007427511736750603,
            -0.0056684319861233234,
            0.023547373712062836,
            -0.03449561819434166,
            -0.011193697340786457,
            -0.05510491505265236,
            -0.030821222811937332,
            0.013571622781455517,
            0.00590639840811491,
            0.06840774416923523,
            -0.003855352755635977,
            0.010225211270153522,
            -0.002510862424969673,
            0.0066131846979260445,
            0.001309588085860014,
            -0.014188648201525211,
            0.0665796771645546,
            -0.01128869503736496,
            0.029860541224479675,
            -0.04751009866595268,
            -0.013160879723727703,
            0.011151893064379692,
            -0.014402352273464203,
            -0.00044779235031455755,
            -0.03320605680346489,
            -0.050353314727544785,
            0.003561567049473524,
            -0.04722801223397255,
            0.015804676339030266
          ],
          [
            -0.026200316846370697,
            0.023198863491415977,
            -0.02773251011967659,
            0.0010522560914978385,
            -0.0037624721881002188,
            0.03413894400000572,
            0.026878871023654938,
            -0.019410543143749237,
            0.02994680032134056,
            -0.015832027420401573,
            0.01355383638292551,
